digraph Tree {
node [shape=box, style="filled", color="black", fontname="helvetica"] ;
edge [fontname="helvetica"] ;
0 [label="HadAngina <= 0.5\ngini = 0.099\nsamples = 260396\nvalue = [246821, 13575]\nclass = No", fillcolor="#e68844"] ;
1 [label="HadStroke <= 0.5\ngini = 0.053\nsamples = 245177\nvalue = [238453, 6724]\nclass = No", fillcolor="#e6853f"] ;
0 -> 1 [labeldistance=2.5, labelangle=45, headlabel="True"] ;
2 [label="ChestScan <= 0.5\ngini = 0.046\nsamples = 237275\nvalue = [231682, 5593]\nclass = No", fillcolor="#e6843e"] ;
1 -> 2 ;
3 [label="AgeCategory <= 7.5\ngini = 0.023\nsamples = 150554\nvalue = [148767, 1787]\nclass = No", fillcolor="#e5833b"] ;
2 -> 3 ;
4 [label="DifficultyWalking <= 0.5\ngini = 0.01\nsamples = 98050\nvalue = [97553, 497]\nclass = No", fillcolor="#e5823a"] ;
3 -> 4 ;
5 [label="HadCOPD <= 0.5\ngini = 0.009\nsamples = 93982\nvalue = [93576, 406]\nclass = No", fillcolor="#e5823a"] ;
4 -> 5 ;
6 [label="AgeCategory <= 5.5\ngini = 0.008\nsamples = 92520\nvalue = [92152, 368]\nclass = No", fillcolor="#e5823a"] ;
5 -> 6 ;
7 [label="RemovedTeeth <= 2.5\ngini = 0.005\nsamples = 69690\nvalue = [69504, 186]\nclass = No", fillcolor="#e5813a"] ;
6 -> 7 ;
8 [label="HadDiabetes <= 1.5\ngini = 0.01\nsamples = 15167\nvalue = [15092, 75]\nclass = No", fillcolor="#e5823a"] ;
7 -> 8 ;
9 [label="HadKidneyDisease <= 0.5\ngini = 0.008\nsamples = 14094\nvalue = [14036, 58]\nclass = No", fillcolor="#e5823a"] ;
8 -> 9 ;
10 [label="DeafOrHardOfHearing <= 0.5\ngini = 0.008\nsamples = 13966\nvalue = [13911, 55]\nclass = No", fillcolor="#e5813a"] ;
9 -> 10 ;
11 [label="HeightInMeters <= 1.665\ngini = 0.007\nsamples = 13614\nvalue = [13564, 50]\nclass = No", fillcolor="#e5813a"] ;
10 -> 11 ;
12 [label="WeightInKilograms <= 44.225\ngini = 0.004\nsamples = 4897\nvalue = [4888, 9]\nclass = No", fillcolor="#e58139"] ;
11 -> 12 ;
13 [label="AgeCategory <= 0.5\ngini = 0.053\nsamples = 37\nvalue = [36, 1]\nclass = No", fillcolor="#e6843e"] ;
12 -> 13 ;
14 [label="gini = 0.278\nsamples = 6\nvalue = [5, 1]\nclass = No", fillcolor="#ea9a61"] ;
13 -> 14 ;
15 [label="gini = 0.0\nsamples = 31\nvalue = [31, 0]\nclass = No", fillcolor="#e58139"] ;
13 -> 15 ;
16 [label="HeightInMeters <= 1.465\ngini = 0.003\nsamples = 4860\nvalue = [4852, 8]\nclass = No", fillcolor="#e58139"] ;
12 -> 16 ;
17 [label="HeightInMeters <= 1.455\ngini = 0.037\nsamples = 53\nvalue = [52, 1]\nclass = No", fillcolor="#e6833d"] ;
16 -> 17 ;
18 [label="gini = 0.0\nsamples = 51\nvalue = [51, 0]\nclass = No", fillcolor="#e58139"] ;
17 -> 18 ;
19 [label="gini = 0.5\nsamples = 2\nvalue = [1, 1]\nclass = No", fillcolor="#ffffff"] ;
17 -> 19 ;
20 [label="WeightInKilograms <= 81.42\ngini = 0.003\nsamples = 4807\nvalue = [4800, 7]\nclass = No", fillcolor="#e58139"] ;
16 -> 20 ;
21 [label="gini = 0.001\nsamples = 3251\nvalue = [3249, 2]\nclass = No", fillcolor="#e58139"] ;
20 -> 21 ;
22 [label="gini = 0.006\nsamples = 1556\nvalue = [1551, 5]\nclass = No", fillcolor="#e5813a"] ;
20 -> 22 ;
23 [label="SleepHours <= 1.5\ngini = 0.009\nsamples = 8717\nvalue = [8676, 41]\nclass = No", fillcolor="#e5823a"] ;
11 -> 23 ;
24 [label="State <= 36.5\ngini = 0.105\nsamples = 18\nvalue = [17, 1]\nclass = No", fillcolor="#e78845"] ;
23 -> 24 ;
25 [label="gini = 0.0\nsamples = 15\nvalue = [15, 0]\nclass = No", fillcolor="#e58139"] ;
24 -> 25 ;
26 [label="gini = 0.444\nsamples = 3\nvalue = [2, 1]\nclass = No", fillcolor="#f2c09c"] ;
24 -> 26 ;
27 [label="HeightInMeters <= 1.675\ngini = 0.009\nsamples = 8699\nvalue = [8659, 40]\nclass = No", fillcolor="#e5823a"] ;
23 -> 27 ;
28 [label="DifficultyConcentrating <= 0.5\ngini = 0.1\nsamples = 19\nvalue = [18, 1]\nclass = No", fillcolor="#e68844"] ;
27 -> 28 ;
29 [label="gini = 0.0\nsamples = 17\nvalue = [17, 0]\nclass = No", fillcolor="#e58139"] ;
28 -> 29 ;
30 [label="gini = 0.5\nsamples = 2\nvalue = [1, 1]\nclass = No", fillcolor="#ffffff"] ;
28 -> 30 ;
31 [label="AgeCategory <= 4.5\ngini = 0.009\nsamples = 8680\nvalue = [8641, 39]\nclass = No", fillcolor="#e5823a"] ;
27 -> 31 ;
32 [label="gini = 0.007\nsamples = 6814\nvalue = [6791, 23]\nclass = No", fillcolor="#e5813a"] ;
31 -> 32 ;
33 [label="gini = 0.017\nsamples = 1866\nvalue = [1850, 16]\nclass = No", fillcolor="#e5823b"] ;
31 -> 33 ;
34 [label="BMI <= 20.42\ngini = 0.028\nsamples = 352\nvalue = [347, 5]\nclass = No", fillcolor="#e5833c"] ;
10 -> 34 ;
35 [label="BlindOrVisionDifficulty <= 0.5\ngini = 0.245\nsamples = 21\nvalue = [18, 3]\nclass = No", fillcolor="#e9965a"] ;
34 -> 35 ;
36 [label="BMI <= 20.35\ngini = 0.105\nsamples = 18\nvalue = [17, 1]\nclass = No", fillcolor="#e78845"] ;
35 -> 36 ;
37 [label="gini = 0.0\nsamples = 17\nvalue = [17, 0]\nclass = No", fillcolor="#e58139"] ;
36 -> 37 ;
38 [label="gini = 0.0\nsamples = 1\nvalue = [0, 1]\nclass = Yes", fillcolor="#399de5"] ;
36 -> 38 ;
39 [label="gini = 0.444\nsamples = 3\nvalue = [1, 2]\nclass = Yes", fillcolor="#9ccef2"] ;
35 -> 39 ;
40 [label="SleepHours <= 8.5\ngini = 0.012\nsamples = 331\nvalue = [329, 2]\nclass = No", fillcolor="#e5823a"] ;
34 -> 40 ;
41 [label="gini = 0.0\nsamples = 315\nvalue = [315, 0]\nclass = No", fillcolor="#e58139"] ;
40 -> 41 ;
42 [label="gini = 0.219\nsamples = 16\nvalue = [14, 2]\nclass = No", fillcolor="#e99355"] ;
40 -> 42 ;
43 [label="MentalHealthDays <= 0.5\ngini = 0.046\nsamples = 128\nvalue = [125, 3]\nclass = No", fillcolor="#e6843e"] ;
9 -> 43 ;
44 [label="WeightInKilograms <= 78.245\ngini = 0.107\nsamples = 53\nvalue = [50, 3]\nclass = No", fillcolor="#e78945"] ;
43 -> 44 ;
45 [label="gini = 0.0\nsamples = 28\nvalue = [28, 0]\nclass = No", fillcolor="#e58139"] ;
44 -> 45 ;
46 [label="WeightInKilograms <= 80.515\ngini = 0.211\nsamples = 25\nvalue = [22, 3]\nclass = No", fillcolor="#e99254"] ;
44 -> 46 ;
47 [label="gini = 0.0\nsamples = 1\nvalue = [0, 1]\nclass = Yes", fillcolor="#399de5"] ;
46 -> 47 ;
48 [label="GeneralHealth <= 1.5\ngini = 0.153\nsamples = 24\nvalue = [22, 2]\nclass = No", fillcolor="#e78c4b"] ;
46 -> 48 ;
49 [label="gini = 0.375\nsamples = 8\nvalue = [6, 2]\nclass = No", fillcolor="#eeab7b"] ;
48 -> 49 ;
50 [label="gini = 0.0\nsamples = 16\nvalue = [16, 0]\nclass = No", fillcolor="#e58139"] ;
48 -> 50 ;
51 [label="gini = 0.0\nsamples = 75\nvalue = [75, 0]\nclass = No", fillcolor="#e58139"] ;
43 -> 51 ;
52 [label="HeightInMeters <= 1.97\ngini = 0.031\nsamples = 1073\nvalue = [1056, 17]\nclass = No", fillcolor="#e5833c"] ;
8 -> 52 ;
53 [label="PhysicalHealthDays <= 19.0\ngini = 0.029\nsamples = 1069\nvalue = [1053, 16]\nclass = No", fillcolor="#e5833c"] ;
52 -> 53 ;
54 [label="DifficultyDressingBathing <= 0.5\ngini = 0.022\nsamples = 981\nvalue = [970, 11]\nclass = No", fillcolor="#e5823b"] ;
53 -> 54 ;
55 [label="DeafOrHardOfHearing <= 0.5\ngini = 0.02\nsamples = 974\nvalue = [964, 10]\nclass = No", fillcolor="#e5823b"] ;
54 -> 55 ;
56 [label="HeightInMeters <= 1.46\ngini = 0.017\nsamples = 947\nvalue = [939, 8]\nclass = No", fillcolor="#e5823b"] ;
55 -> 56 ;
57 [label="gini = 0.198\nsamples = 9\nvalue = [8, 1]\nclass = No", fillcolor="#e89152"] ;
56 -> 57 ;
58 [label="SleepHours <= 10.5\ngini = 0.015\nsamples = 938\nvalue = [931, 7]\nclass = No", fillcolor="#e5823a"] ;
56 -> 58 ;
59 [label="gini = 0.013\nsamples = 925\nvalue = [919, 6]\nclass = No", fillcolor="#e5823a"] ;
58 -> 59 ;
60 [label="gini = 0.142\nsamples = 13\nvalue = [12, 1]\nclass = No", fillcolor="#e78c49"] ;
58 -> 60 ;
61 [label="LastCheckupTime <= 2.5\ngini = 0.137\nsamples = 27\nvalue = [25, 2]\nclass = No", fillcolor="#e78b49"] ;
55 -> 61 ;
62 [label="gini = 0.0\nsamples = 1\nvalue = [0, 1]\nclass = Yes", fillcolor="#399de5"] ;
61 -> 62 ;
63 [label="SleepHours <= 5.5\ngini = 0.074\nsamples = 26\nvalue = [25, 1]\nclass = No", fillcolor="#e68641"] ;
61 -> 63 ;
64 [label="gini = 0.32\nsamples = 5\nvalue = [4, 1]\nclass = No", fillcolor="#eca06a"] ;
63 -> 64 ;
65 [label="gini = 0.0\nsamples = 21\nvalue = [21, 0]\nclass = No", fillcolor="#e58139"] ;
63 -> 65 ;
66 [label="gini = 0.245\nsamples = 7\nvalue = [6, 1]\nclass = No", fillcolor="#e9965a"] ;
54 -> 66 ;
67 [label="WeightInKilograms <= 121.335\ngini = 0.107\nsamples = 88\nvalue = [83, 5]\nclass = No", fillcolor="#e78945"] ;
53 -> 67 ;
68 [label="PhysicalHealthDays <= 20.5\ngini = 0.053\nsamples = 74\nvalue = [72, 2]\nclass = No", fillcolor="#e6843e"] ;
67 -> 68 ;
69 [label="gini = 0.278\nsamples = 12\nvalue = [10, 2]\nclass = No", fillcolor="#ea9a61"] ;
68 -> 69 ;
70 [label="gini = 0.0\nsamples = 62\nvalue = [62, 0]\nclass = No", fillcolor="#e58139"] ;
68 -> 70 ;
71 [label="gini = 0.337\nsamples = 14\nvalue = [11, 3]\nclass = No", fillcolor="#eca36f"] ;
67 -> 71 ;
72 [label="gini = 0.375\nsamples = 4\nvalue = [3, 1]\nclass = No", fillcolor="#eeab7b"] ;
52 -> 72 ;
73 [label="DifficultyErrands <= 0.5\ngini = 0.004\nsamples = 54523\nvalue = [54412, 111]\nclass = No", fillcolor="#e58139"] ;
7 -> 73 ;
74 [label="PhysicalHealthDays <= 4.5\ngini = 0.004\nsamples = 53070\nvalue = [52970, 100]\nclass = No", fillcolor="#e58139"] ;
73 -> 74 ;
75 [label="DifficultyDressingBathing <= 0.5\ngini = 0.003\nsamples = 46480\nvalue = [46405, 75]\nclass = No", fillcolor="#e58139"] ;
74 -> 75 ;
76 [label="DeafOrHardOfHearing <= 0.5\ngini = 0.003\nsamples = 46434\nvalue = [46360, 74]\nclass = No", fillcolor="#e58139"] ;
75 -> 76 ;
77 [label="HeightInMeters <= 1.795\ngini = 0.003\nsamples = 45807\nvalue = [45737, 70]\nclass = No", fillcolor="#e58139"] ;
76 -> 77 ;
78 [label="WeightInKilograms <= 43.315\ngini = 0.003\nsamples = 33199\nvalue = [33157, 42]\nclass = No", fillcolor="#e58139"] ;
77 -> 78 ;
79 [label="PhysicalHealthDays <= 3.5\ngini = 0.021\nsamples = 93\nvalue = [92, 1]\nclass = No", fillcolor="#e5823b"] ;
78 -> 79 ;
80 [label="gini = 0.0\nsamples = 91\nvalue = [91, 0]\nclass = No", fillcolor="#e58139"] ;
79 -> 80 ;
81 [label="gini = 0.5\nsamples = 2\nvalue = [1, 1]\nclass = No", fillcolor="#ffffff"] ;
79 -> 81 ;
82 [label="HIVTesting <= 0.5\ngini = 0.002\nsamples = 33106\nvalue = [33065, 41]\nclass = No", fillcolor="#e58139"] ;
78 -> 82 ;
83 [label="gini = 0.002\nsamples = 20413\nvalue = [20395, 18]\nclass = No", fillcolor="#e58139"] ;
82 -> 83 ;
84 [label="gini = 0.004\nsamples = 12693\nvalue = [12670, 23]\nclass = No", fillcolor="#e58139"] ;
82 -> 84 ;
85 [label="BlindOrVisionDifficulty <= 0.5\ngini = 0.004\nsamples = 12608\nvalue = [12580, 28]\nclass = No", fillcolor="#e58139"] ;
77 -> 85 ;
86 [label="MentalHealthDays <= 14.5\ngini = 0.004\nsamples = 12468\nvalue = [12443, 25]\nclass = No", fillcolor="#e58139"] ;
85 -> 86 ;
87 [label="gini = 0.003\nsamples = 11381\nvalue = [11363, 18]\nclass = No", fillcolor="#e58139"] ;
86 -> 87 ;
88 [label="gini = 0.013\nsamples = 1087\nvalue = [1080, 7]\nclass = No", fillcolor="#e5823a"] ;
86 -> 88 ;
89 [label="HeightInMeters <= 1.955\ngini = 0.042\nsamples = 140\nvalue = [137, 3]\nclass = No", fillcolor="#e6843d"] ;
85 -> 89 ;
90 [label="gini = 0.029\nsamples = 136\nvalue = [134, 2]\nclass = No", fillcolor="#e5833c"] ;
89 -> 90 ;
91 [label="gini = 0.375\nsamples = 4\nvalue = [3, 1]\nclass = No", fillcolor="#eeab7b"] ;
89 -> 91 ;
92 [label="SleepHours <= 1.5\ngini = 0.013\nsamples = 627\nvalue = [623, 4]\nclass = No", fillcolor="#e5823a"] ;
76 -> 92 ;
93 [label="gini = 0.0\nsamples = 1\nvalue = [0, 1]\nclass = Yes", fillcolor="#399de5"] ;
92 -> 93 ;
94 [label="LastCheckupTime <= 1.5\ngini = 0.01\nsamples = 626\nvalue = [623, 3]\nclass = No", fillcolor="#e5823a"] ;
92 -> 94 ;
95 [label="HadDepressiveDisorder <= 0.5\ngini = 0.039\nsamples = 150\nvalue = [147, 3]\nclass = No", fillcolor="#e6843d"] ;
94 -> 95 ;
96 [label="gini = 0.016\nsamples = 124\nvalue = [123, 1]\nclass = No", fillcolor="#e5823b"] ;
95 -> 96 ;
97 [label="gini = 0.142\nsamples = 26\nvalue = [24, 2]\nclass = No", fillcolor="#e78c49"] ;
95 -> 97 ;
98 [label="gini = 0.0\nsamples = 476\nvalue = [476, 0]\nclass = No", fillcolor="#e58139"] ;
94 -> 98 ;
99 [label="SleepHours <= 3.5\ngini = 0.043\nsamples = 46\nvalue = [45, 1]\nclass = No", fillcolor="#e6843d"] ;
75 -> 99 ;
100 [label="gini = 0.0\nsamples = 1\nvalue = [0, 1]\nclass = Yes", fillcolor="#399de5"] ;
99 -> 100 ;
101 [label="gini = 0.0\nsamples = 45\nvalue = [45, 0]\nclass = No", fillcolor="#e58139"] ;
99 -> 101 ;
102 [label="SmokerStatus <= 0.5\ngini = 0.008\nsamples = 6590\nvalue = [6565, 25]\nclass = No", fillcolor="#e5813a"] ;
74 -> 102 ;
103 [label="HeightInMeters <= 1.97\ngini = 0.027\nsamples = 359\nvalue = [354, 5]\nclass = No", fillcolor="#e5833c"] ;
102 -> 103 ;
104 [label="HeightInMeters <= 1.84\ngini = 0.022\nsamples = 357\nvalue = [353, 4]\nclass = No", fillcolor="#e5823b"] ;
103 -> 104 ;
105 [label="DeafOrHardOfHearing <= 0.5\ngini = 0.006\nsamples = 317\nvalue = [316, 1]\nclass = No", fillcolor="#e5813a"] ;
104 -> 105 ;
106 [label="gini = 0.0\nsamples = 305\nvalue = [305, 0]\nclass = No", fillcolor="#e58139"] ;
105 -> 106 ;
107 [label="gini = 0.153\nsamples = 12\nvalue = [11, 1]\nclass = No", fillcolor="#e78c4b"] ;
105 -> 107 ;
108 [label="AgeCategory <= 4.5\ngini = 0.139\nsamples = 40\nvalue = [37, 3]\nclass = No", fillcolor="#e78b49"] ;
104 -> 108 ;
109 [label="GeneralHealth <= 0.5\ngini = 0.056\nsamples = 35\nvalue = [34, 1]\nclass = No", fillcolor="#e6853f"] ;
108 -> 109 ;
110 [label="gini = 0.245\nsamples = 7\nvalue = [6, 1]\nclass = No", fillcolor="#e9965a"] ;
109 -> 110 ;
111 [label="gini = 0.0\nsamples = 28\nvalue = [28, 0]\nclass = No", fillcolor="#e58139"] ;
109 -> 111 ;
112 [label="gini = 0.48\nsamples = 5\nvalue = [3, 2]\nclass = No", fillcolor="#f6d5bd"] ;
108 -> 112 ;
113 [label="gini = 0.5\nsamples = 2\nvalue = [1, 1]\nclass = No", fillcolor="#ffffff"] ;
103 -> 113 ;
114 [label="HadSkinCancer <= 0.5\ngini = 0.006\nsamples = 6231\nvalue = [6211, 20]\nclass = No", fillcolor="#e5813a"] ;
102 -> 114 ;
115 [label="RaceEthnicityCategory <= 3.5\ngini = 0.006\nsamples = 6151\nvalue = [6133, 18]\nclass = No", fillcolor="#e5813a"] ;
114 -> 115 ;
116 [label="GeneralHealth <= 1.5\ngini = 0.011\nsamples = 1941\nvalue = [1930, 11]\nclass = No", fillcolor="#e5823a"] ;
115 -> 116 ;
117 [label="State <= 24.5\ngini = 0.026\nsamples = 608\nvalue = [600, 8]\nclass = No", fillcolor="#e5833c"] ;
116 -> 117 ;
118 [label="gini = 0.055\nsamples = 283\nvalue = [275, 8]\nclass = No", fillcolor="#e6853f"] ;
117 -> 118 ;
119 [label="gini = 0.0\nsamples = 325\nvalue = [325, 0]\nclass = No", fillcolor="#e58139"] ;
117 -> 119 ;
120 [label="State <= 2.5\ngini = 0.004\nsamples = 1333\nvalue = [1330, 3]\nclass = No", fillcolor="#e58139"] ;
116 -> 120 ;
121 [label="gini = 0.028\nsamples = 71\nvalue = [70, 1]\nclass = No", fillcolor="#e5833c"] ;
120 -> 121 ;
122 [label="gini = 0.003\nsamples = 1262\nvalue = [1260, 2]\nclass = No", fillcolor="#e58139"] ;
120 -> 122 ;
123 [label="MentalHealthDays <= 1.5\ngini = 0.003\nsamples = 4210\nvalue = [4203, 7]\nclass = No", fillcolor="#e58139"] ;
115 -> 123 ;
124 [label="State <= 26.5\ngini = 0.008\nsamples = 1310\nvalue = [1305, 5]\nclass = No", fillcolor="#e5813a"] ;
123 -> 124 ;
125 [label="gini = 0.0\nsamples = 668\nvalue = [668, 0]\nclass = No", fillcolor="#e58139"] ;
124 -> 125 ;
126 [label="gini = 0.015\nsamples = 642\nvalue = [637, 5]\nclass = No", fillcolor="#e5823b"] ;
124 -> 126 ;
127 [label="HeightInMeters <= 1.64\ngini = 0.001\nsamples = 2900\nvalue = [2898, 2]\nclass = No", fillcolor="#e58139"] ;
123 -> 127 ;
128 [label="gini = 0.005\nsamples = 748\nvalue = [746, 2]\nclass = No", fillcolor="#e5813a"] ;
127 -> 128 ;
129 [label="gini = 0.0\nsamples = 2152\nvalue = [2152, 0]\nclass = No", fillcolor="#e58139"] ;
127 -> 129 ;
130 [label="MentalHealthDays <= 27.5\ngini = 0.049\nsamples = 80\nvalue = [78, 2]\nclass = No", fillcolor="#e6843e"] ;
114 -> 130 ;
131 [label="PhysicalActivities <= 0.5\ngini = 0.026\nsamples = 75\nvalue = [74, 1]\nclass = No", fillcolor="#e5833c"] ;
130 -> 131 ;
132 [label="gini = 0.32\nsamples = 5\nvalue = [4, 1]\nclass = No", fillcolor="#eca06a"] ;
131 -> 132 ;
133 [label="gini = 0.0\nsamples = 70\nvalue = [70, 0]\nclass = No", fillcolor="#e58139"] ;
131 -> 133 ;
134 [label="gini = 0.32\nsamples = 5\nvalue = [4, 1]\nclass = No", fillcolor="#eca06a"] ;
130 -> 134 ;
135 [label="HeightInMeters <= 1.97\ngini = 0.015\nsamples = 1453\nvalue = [1442, 11]\nclass = No", fillcolor="#e5823b"] ;
73 -> 135 ;
136 [label="HadKidneyDisease <= 0.5\ngini = 0.014\nsamples = 1447\nvalue = [1437, 10]\nclass = No", fillcolor="#e5823a"] ;
135 -> 136 ;
137 [label="SmokerStatus <= 1.5\ngini = 0.011\nsamples = 1424\nvalue = [1416, 8]\nclass = No", fillcolor="#e5823a"] ;
136 -> 137 ;
138 [label="ECigaretteUsage <= 0.5\ngini = 0.046\nsamples = 214\nvalue = [209, 5]\nclass = No", fillcolor="#e6843e"] ;
137 -> 138 ;
139 [label="SleepHours <= 3.5\ngini = 0.202\nsamples = 35\nvalue = [31, 4]\nclass = No", fillcolor="#e89153"] ;
138 -> 139 ;
140 [label="gini = 0.0\nsamples = 1\nvalue = [0, 1]\nclass = Yes", fillcolor="#399de5"] ;
139 -> 140 ;
141 [label="BMI <= 18.62\ngini = 0.161\nsamples = 34\nvalue = [31, 3]\nclass = No", fillcolor="#e88d4c"] ;
139 -> 141 ;
142 [label="gini = 0.5\nsamples = 2\nvalue = [1, 1]\nclass = No", fillcolor="#ffffff"] ;
141 -> 142 ;
143 [label="gini = 0.117\nsamples = 32\nvalue = [30, 2]\nclass = No", fillcolor="#e78946"] ;
141 -> 143 ;
144 [label="WeightInKilograms <= 58.29\ngini = 0.011\nsamples = 179\nvalue = [178, 1]\nclass = No", fillcolor="#e5823a"] ;
138 -> 144 ;
145 [label="WeightInKilograms <= 57.38\ngini = 0.074\nsamples = 26\nvalue = [25, 1]\nclass = No", fillcolor="#e68641"] ;
144 -> 145 ;
146 [label="gini = 0.0\nsamples = 23\nvalue = [23, 0]\nclass = No", fillcolor="#e58139"] ;
145 -> 146 ;
147 [label="gini = 0.444\nsamples = 3\nvalue = [2, 1]\nclass = No", fillcolor="#f2c09c"] ;
145 -> 147 ;
148 [label="gini = 0.0\nsamples = 153\nvalue = [153, 0]\nclass = No", fillcolor="#e58139"] ;
144 -> 148 ;
149 [label="WeightInKilograms <= 90.49\ngini = 0.005\nsamples = 1210\nvalue = [1207, 3]\nclass = No", fillcolor="#e58139"] ;
137 -> 149 ;
150 [label="gini = 0.0\nsamples = 840\nvalue = [840, 0]\nclass = No", fillcolor="#e58139"] ;
149 -> 150 ;
151 [label="BMI <= 30.06\ngini = 0.016\nsamples = 370\nvalue = [367, 3]\nclass = No", fillcolor="#e5823b"] ;
149 -> 151 ;
152 [label="BMI <= 29.915\ngini = 0.081\nsamples = 47\nvalue = [45, 2]\nclass = No", fillcolor="#e68742"] ;
151 -> 152 ;
153 [label="gini = 0.043\nsamples = 46\nvalue = [45, 1]\nclass = No", fillcolor="#e6843d"] ;
152 -> 153 ;
154 [label="gini = 0.0\nsamples = 1\nvalue = [0, 1]\nclass = Yes", fillcolor="#399de5"] ;
152 -> 154 ;
155 [label="BMI <= 32.44\ngini = 0.006\nsamples = 323\nvalue = [322, 1]\nclass = No", fillcolor="#e5813a"] ;
151 -> 155 ;
156 [label="gini = 0.03\nsamples = 66\nvalue = [65, 1]\nclass = No", fillcolor="#e5833c"] ;
155 -> 156 ;
157 [label="gini = 0.0\nsamples = 257\nvalue = [257, 0]\nclass = No", fillcolor="#e58139"] ;
155 -> 157 ;
158 [label="HeightInMeters <= 1.535\ngini = 0.159\nsamples = 23\nvalue = [21, 2]\nclass = No", fillcolor="#e78d4c"] ;
136 -> 158 ;
159 [label="gini = 0.0\nsamples = 1\nvalue = [0, 1]\nclass = Yes", fillcolor="#399de5"] ;
158 -> 159 ;
160 [label="ECigaretteUsage <= 2.5\ngini = 0.087\nsamples = 22\nvalue = [21, 1]\nclass = No", fillcolor="#e68742"] ;
158 -> 160 ;
161 [label="gini = 0.0\nsamples = 19\nvalue = [19, 0]\nclass = No", fillcolor="#e58139"] ;
160 -> 161 ;
162 [label="gini = 0.444\nsamples = 3\nvalue = [2, 1]\nclass = No", fillcolor="#f2c09c"] ;
160 -> 162 ;
163 [label="gini = 0.278\nsamples = 6\nvalue = [5, 1]\nclass = No", fillcolor="#ea9a61"] ;
135 -> 163 ;
164 [label="MentalHealthDays <= 28.5\ngini = 0.016\nsamples = 22830\nvalue = [22648, 182]\nclass = No", fillcolor="#e5823b"] ;
6 -> 164 ;
165 [label="SmokerStatus <= 2.5\ngini = 0.015\nsamples = 22111\nvalue = [21949, 162]\nclass = No", fillcolor="#e5823a"] ;
164 -> 165 ;
166 [label="WeightInKilograms <= 153.765\ngini = 0.024\nsamples = 6956\nvalue = [6871, 85]\nclass = No", fillcolor="#e5833b"] ;
165 -> 166 ;
167 [label="Sex <= 0.5\ngini = 0.023\nsamples = 6930\nvalue = [6848, 82]\nclass = No", fillcolor="#e5833b"] ;
166 -> 167 ;
168 [label="State <= 21.5\ngini = 0.011\nsamples = 3474\nvalue = [3454, 20]\nclass = No", fillcolor="#e5823a"] ;
167 -> 168 ;
169 [label="BMI <= 42.005\ngini = 0.021\nsamples = 1343\nvalue = [1329, 14]\nclass = No", fillcolor="#e5823b"] ;
168 -> 169 ;
170 [label="AgeCategory <= 6.5\ngini = 0.017\nsamples = 1294\nvalue = [1283, 11]\nclass = No", fillcolor="#e5823b"] ;
169 -> 170 ;
171 [label="WeightInKilograms <= 112.265\ngini = 0.006\nsamples = 640\nvalue = [638, 2]\nclass = No", fillcolor="#e5813a"] ;
170 -> 171 ;
172 [label="gini = 0.003\nsamples = 628\nvalue = [627, 1]\nclass = No", fillcolor="#e58139"] ;
171 -> 172 ;
173 [label="gini = 0.153\nsamples = 12\nvalue = [11, 1]\nclass = No", fillcolor="#e78c4b"] ;
171 -> 173 ;
174 [label="DifficultyErrands <= 0.5\ngini = 0.027\nsamples = 654\nvalue = [645, 9]\nclass = No", fillcolor="#e5833c"] ;
170 -> 174 ;
175 [label="gini = 0.025\nsamples = 644\nvalue = [636, 8]\nclass = No", fillcolor="#e5833b"] ;
174 -> 175 ;
176 [label="gini = 0.18\nsamples = 10\nvalue = [9, 1]\nclass = No", fillcolor="#e88f4f"] ;
174 -> 176 ;
177 [label="BMI <= 42.06\ngini = 0.115\nsamples = 49\nvalue = [46, 3]\nclass = No", fillcolor="#e78946"] ;
169 -> 177 ;
178 [label="gini = 0.0\nsamples = 1\nvalue = [0, 1]\nclass = Yes", fillcolor="#399de5"] ;
177 -> 178 ;
179 [label="HeightInMeters <= 1.56\ngini = 0.08\nsamples = 48\nvalue = [46, 2]\nclass = No", fillcolor="#e68642"] ;
177 -> 179 ;
180 [label="gini = 0.298\nsamples = 11\nvalue = [9, 2]\nclass = No", fillcolor="#eb9d65"] ;
179 -> 180 ;
181 [label="gini = 0.0\nsamples = 37\nvalue = [37, 0]\nclass = No", fillcolor="#e58139"] ;
179 -> 181 ;
182 [label="HeightInMeters <= 1.765\ngini = 0.006\nsamples = 2131\nvalue = [2125, 6]\nclass = No", fillcolor="#e5813a"] ;
168 -> 182 ;
183 [label="SleepHours <= 7.5\ngini = 0.004\nsamples = 2009\nvalue = [2005, 4]\nclass = No", fillcolor="#e58139"] ;
182 -> 183 ;
184 [label="gini = 0.0\nsamples = 1364\nvalue = [1364, 0]\nclass = No", fillcolor="#e58139"] ;
183 -> 184 ;
185 [label="MentalHealthDays <= 1.5\ngini = 0.012\nsamples = 645\nvalue = [641, 4]\nclass = No", fillcolor="#e5823a"] ;
183 -> 185 ;
186 [label="gini = 0.0\nsamples = 442\nvalue = [442, 0]\nclass = No", fillcolor="#e58139"] ;
185 -> 186 ;
187 [label="gini = 0.039\nsamples = 203\nvalue = [199, 4]\nclass = No", fillcolor="#e6843d"] ;
185 -> 187 ;
188 [label="ECigaretteUsage <= 1.5\ngini = 0.032\nsamples = 122\nvalue = [120, 2]\nclass = No", fillcolor="#e5833c"] ;
182 -> 188 ;
189 [label="RemovedTeeth <= 0.5\ngini = 0.017\nsamples = 114\nvalue = [113, 1]\nclass = No", fillcolor="#e5823b"] ;
188 -> 189 ;
190 [label="gini = 0.064\nsamples = 30\nvalue = [29, 1]\nclass = No", fillcolor="#e68540"] ;
189 -> 190 ;
191 [label="gini = 0.0\nsamples = 84\nvalue = [84, 0]\nclass = No", fillcolor="#e58139"] ;
189 -> 191 ;
192 [label="gini = 0.219\nsamples = 8\nvalue = [7, 1]\nclass = No", fillcolor="#e99355"] ;
188 -> 192 ;
193 [label="HadDiabetes <= 0.5\ngini = 0.035\nsamples = 3456\nvalue = [3394, 62]\nclass = No", fillcolor="#e5833d"] ;
167 -> 193 ;
194 [label="WeightInKilograms <= 47.63\ngini = 0.028\nsamples = 3007\nvalue = [2964, 43]\nclass = No", fillcolor="#e5833c"] ;
193 -> 194 ;
195 [label="gini = 0.375\nsamples = 4\nvalue = [3, 1]\nclass = No", fillcolor="#eeab7b"] ;
194 -> 195 ;
196 [label="AgeCategory <= 6.5\ngini = 0.028\nsamples = 3003\nvalue = [2961, 42]\nclass = No", fillcolor="#e5833c"] ;
194 -> 196 ;
197 [label="MentalHealthDays <= 14.5\ngini = 0.016\nsamples = 1657\nvalue = [1644, 13]\nclass = No", fillcolor="#e5823b"] ;
196 -> 197 ;
198 [label="gini = 0.013\nsamples = 1568\nvalue = [1558, 10]\nclass = No", fillcolor="#e5823a"] ;
197 -> 198 ;
199 [label="gini = 0.065\nsamples = 89\nvalue = [86, 3]\nclass = No", fillcolor="#e68540"] ;
197 -> 199 ;
200 [label="PhysicalHealthDays <= 8.5\ngini = 0.042\nsamples = 1346\nvalue = [1317, 29]\nclass = No", fillcolor="#e6843d"] ;
196 -> 200 ;
201 [label="gini = 0.035\nsamples = 1249\nvalue = [1227, 22]\nclass = No", fillcolor="#e5833d"] ;
200 -> 201 ;
202 [label="gini = 0.134\nsamples = 97\nvalue = [90, 7]\nclass = No", fillcolor="#e78b48"] ;
200 -> 202 ;
203 [label="SmokerStatus <= 1.5\ngini = 0.081\nsamples = 449\nvalue = [430, 19]\nclass = No", fillcolor="#e68742"] ;
193 -> 203 ;
204 [label="HadDiabetes <= 1.5\ngini = 0.148\nsamples = 137\nvalue = [126, 11]\nclass = No", fillcolor="#e78c4a"] ;
203 -> 204 ;
205 [label="CovidPos <= 0.5\ngini = 0.328\nsamples = 29\nvalue = [23, 6]\nclass = No", fillcolor="#eca26d"] ;
204 -> 205 ;
206 [label="gini = 0.172\nsamples = 21\nvalue = [19, 2]\nclass = No", fillcolor="#e88e4e"] ;
205 -> 206 ;
207 [label="gini = 0.5\nsamples = 8\nvalue = [4, 4]\nclass = No", fillcolor="#ffffff"] ;
205 -> 207 ;
208 [label="HadKidneyDisease <= 0.5\ngini = 0.088\nsamples = 108\nvalue = [103, 5]\nclass = No", fillcolor="#e68743"] ;
204 -> 208 ;
209 [label="gini = 0.073\nsamples = 106\nvalue = [102, 4]\nclass = No", fillcolor="#e68641"] ;
208 -> 209 ;
210 [label="gini = 0.5\nsamples = 2\nvalue = [1, 1]\nclass = No", fillcolor="#ffffff"] ;
208 -> 210 ;
211 [label="State <= 6.5\ngini = 0.05\nsamples = 312\nvalue = [304, 8]\nclass = No", fillcolor="#e6843e"] ;
203 -> 211 ;
212 [label="HeightInMeters <= 1.6\ngini = 0.156\nsamples = 47\nvalue = [43, 4]\nclass = No", fillcolor="#e78d4b"] ;
211 -> 212 ;
213 [label="gini = 0.0\nsamples = 1\nvalue = [0, 1]\nclass = Yes", fillcolor="#399de5"] ;
212 -> 213 ;
214 [label="gini = 0.122\nsamples = 46\nvalue = [43, 3]\nclass = No", fillcolor="#e78a47"] ;
212 -> 214 ;
215 [label="MentalHealthDays <= 1.5\ngini = 0.03\nsamples = 265\nvalue = [261, 4]\nclass = No", fillcolor="#e5833c"] ;
211 -> 215 ;
216 [label="gini = 0.01\nsamples = 207\nvalue = [206, 1]\nclass = No", fillcolor="#e5823a"] ;
215 -> 216 ;
217 [label="gini = 0.098\nsamples = 58\nvalue = [55, 3]\nclass = No", fillcolor="#e68844"] ;
215 -> 217 ;
218 [label="HadDepressiveDisorder <= 0.5\ngini = 0.204\nsamples = 26\nvalue = [23, 3]\nclass = No", fillcolor="#e89153"] ;
166 -> 218 ;
219 [label="Sex <= 0.5\ngini = 0.083\nsamples = 23\nvalue = [22, 1]\nclass = No", fillcolor="#e68742"] ;
218 -> 219 ;
220 [label="gini = 0.444\nsamples = 3\nvalue = [2, 1]\nclass = No", fillcolor="#f2c09c"] ;
219 -> 220 ;
221 [label="gini = 0.0\nsamples = 20\nvalue = [20, 0]\nclass = No", fillcolor="#e58139"] ;
219 -> 221 ;
222 [label="gini = 0.444\nsamples = 3\nvalue = [1, 2]\nclass = Yes", fillcolor="#9ccef2"] ;
218 -> 222 ;
223 [label="WeightInKilograms <= 180.305\ngini = 0.01\nsamples = 15155\nvalue = [15078, 77]\nclass = No", fillcolor="#e5823a"] ;
165 -> 223 ;
224 [label="PhysicalHealthDays <= 29.5\ngini = 0.01\nsamples = 15150\nvalue = [15074, 76]\nclass = No", fillcolor="#e5823a"] ;
223 -> 224 ;
225 [label="HadArthritis <= 0.5\ngini = 0.009\nsamples = 14921\nvalue = [14850, 71]\nclass = No", fillcolor="#e5823a"] ;
224 -> 225 ;
226 [label="WeightInKilograms <= 41.505\ngini = 0.008\nsamples = 11836\nvalue = [11791, 45]\nclass = No", fillcolor="#e5813a"] ;
225 -> 226 ;
227 [label="gini = 0.117\nsamples = 16\nvalue = [15, 1]\nclass = No", fillcolor="#e78946"] ;
226 -> 227 ;
228 [label="WeightInKilograms <= 108.635\ngini = 0.007\nsamples = 11820\nvalue = [11776, 44]\nclass = No", fillcolor="#e5813a"] ;
226 -> 228 ;
229 [label="Sex <= 0.5\ngini = 0.006\nsamples = 10561\nvalue = [10528, 33]\nclass = No", fillcolor="#e5813a"] ;
228 -> 229 ;
230 [label="gini = 0.004\nsamples = 5930\nvalue = [5919, 11]\nclass = No", fillcolor="#e58139"] ;
229 -> 230 ;
231 [label="gini = 0.009\nsamples = 4631\nvalue = [4609, 22]\nclass = No", fillcolor="#e5823a"] ;
229 -> 231 ;
232 [label="State <= 48.5\ngini = 0.017\nsamples = 1259\nvalue = [1248, 11]\nclass = No", fillcolor="#e5823b"] ;
228 -> 232 ;
233 [label="gini = 0.013\nsamples = 1095\nvalue = [1088, 7]\nclass = No", fillcolor="#e5823a"] ;
232 -> 233 ;
234 [label="gini = 0.048\nsamples = 164\nvalue = [160, 4]\nclass = No", fillcolor="#e6843e"] ;
232 -> 234 ;
235 [label="HeightInMeters <= 1.895\ngini = 0.017\nsamples = 3085\nvalue = [3059, 26]\nclass = No", fillcolor="#e5823b"] ;
225 -> 235 ;
236 [label="PhysicalHealthDays <= 13.0\ngini = 0.015\nsamples = 2978\nvalue = [2956, 22]\nclass = No", fillcolor="#e5823a"] ;
235 -> 236 ;
237 [label="TetanusLast10Tdap <= 0.5\ngini = 0.013\nsamples = 2841\nvalue = [2823, 18]\nclass = No", fillcolor="#e5823a"] ;
236 -> 237 ;
238 [label="gini = 0.021\nsamples = 1023\nvalue = [1012, 11]\nclass = No", fillcolor="#e5823b"] ;
237 -> 238 ;
239 [label="gini = 0.008\nsamples = 1818\nvalue = [1811, 7]\nclass = No", fillcolor="#e5813a"] ;
237 -> 239 ;
240 [label="State <= 0.5\ngini = 0.057\nsamples = 137\nvalue = [133, 4]\nclass = No", fillcolor="#e6853f"] ;
236 -> 240 ;
241 [label="gini = 0.0\nsamples = 1\nvalue = [0, 1]\nclass = Yes", fillcolor="#399de5"] ;
240 -> 241 ;
242 [label="gini = 0.043\nsamples = 136\nvalue = [133, 3]\nclass = No", fillcolor="#e6843d"] ;
240 -> 242 ;
243 [label="DeafOrHardOfHearing <= 0.5\ngini = 0.072\nsamples = 107\nvalue = [103, 4]\nclass = No", fillcolor="#e68641"] ;
235 -> 243 ;
244 [label="FluVaxLast12 <= 0.5\ngini = 0.038\nsamples = 102\nvalue = [100, 2]\nclass = No", fillcolor="#e6843d"] ;
243 -> 244 ;
245 [label="gini = 0.091\nsamples = 42\nvalue = [40, 2]\nclass = No", fillcolor="#e68743"] ;
244 -> 245 ;
246 [label="gini = 0.0\nsamples = 60\nvalue = [60, 0]\nclass = No", fillcolor="#e58139"] ;
244 -> 246 ;
247 [label="gini = 0.48\nsamples = 5\nvalue = [3, 2]\nclass = No", fillcolor="#f6d5bd"] ;
243 -> 247 ;
248 [label="SleepHours <= 1.5\ngini = 0.043\nsamples = 229\nvalue = [224, 5]\nclass = No", fillcolor="#e6843d"] ;
224 -> 248 ;
249 [label="gini = 0.0\nsamples = 1\nvalue = [0, 1]\nclass = Yes", fillcolor="#399de5"] ;
248 -> 249 ;
250 [label="WeightInKilograms <= 128.59\ngini = 0.034\nsamples = 228\nvalue = [224, 4]\nclass = No", fillcolor="#e5833d"] ;
248 -> 250 ;
251 [label="LastCheckupTime <= 0.5\ngini = 0.027\nsamples = 221\nvalue = [218, 3]\nclass = No", fillcolor="#e5833c"] ;
250 -> 251 ;
252 [label="gini = 0.245\nsamples = 7\nvalue = [6, 1]\nclass = No", fillcolor="#e9965a"] ;
251 -> 252 ;
253 [label="State <= 8.5\ngini = 0.019\nsamples = 214\nvalue = [212, 2]\nclass = No", fillcolor="#e5823b"] ;
251 -> 253 ;
254 [label="gini = 0.111\nsamples = 34\nvalue = [32, 2]\nclass = No", fillcolor="#e78945"] ;
253 -> 254 ;
255 [label="gini = 0.0\nsamples = 180\nvalue = [180, 0]\nclass = No", fillcolor="#e58139"] ;
253 -> 255 ;
256 [label="gini = 0.245\nsamples = 7\nvalue = [6, 1]\nclass = No", fillcolor="#e9965a"] ;
250 -> 256 ;
257 [label="gini = 0.32\nsamples = 5\nvalue = [4, 1]\nclass = No", fillcolor="#eca06a"] ;
223 -> 257 ;
258 [label="BlindOrVisionDifficulty <= 0.5\ngini = 0.054\nsamples = 719\nvalue = [699, 20]\nclass = No", fillcolor="#e6853f"] ;
164 -> 258 ;
259 [label="RemovedTeeth <= 0.5\ngini = 0.046\nsamples = 680\nvalue = [664, 16]\nclass = No", fillcolor="#e6843e"] ;
258 -> 259 ;
260 [label="WeightInKilograms <= 103.65\ngini = 0.087\nsamples = 240\nvalue = [229, 11]\nclass = No", fillcolor="#e68743"] ;
259 -> 260 ;
261 [label="DifficultyDressingBathing <= 0.5\ngini = 0.05\nsamples = 195\nvalue = [190, 5]\nclass = No", fillcolor="#e6843e"] ;
260 -> 261 ;
262 [label="MentalHealthDays <= 29.5\ngini = 0.041\nsamples = 191\nvalue = [187, 4]\nclass = No", fillcolor="#e6843d"] ;
261 -> 262 ;
263 [label="gini = 0.32\nsamples = 5\nvalue = [4, 1]\nclass = No", fillcolor="#eca06a"] ;
262 -> 263 ;
264 [label="BMI <= 20.79\ngini = 0.032\nsamples = 186\nvalue = [183, 3]\nclass = No", fillcolor="#e5833c"] ;
262 -> 264 ;
265 [label="gini = 0.278\nsamples = 6\nvalue = [5, 1]\nclass = No", fillcolor="#ea9a61"] ;
264 -> 265 ;
266 [label="PneumoVaxEver <= 0.5\ngini = 0.022\nsamples = 180\nvalue = [178, 2]\nclass = No", fillcolor="#e5823b"] ;
264 -> 266 ;
267 [label="gini = 0.0\nsamples = 144\nvalue = [144, 0]\nclass = No", fillcolor="#e58139"] ;
266 -> 267 ;
268 [label="gini = 0.105\nsamples = 36\nvalue = [34, 2]\nclass = No", fillcolor="#e78845"] ;
266 -> 268 ;
269 [label="gini = 0.375\nsamples = 4\nvalue = [3, 1]\nclass = No", fillcolor="#eeab7b"] ;
261 -> 269 ;
270 [label="BMI <= 31.33\ngini = 0.231\nsamples = 45\nvalue = [39, 6]\nclass = No", fillcolor="#e99457"] ;
260 -> 270 ;
271 [label="gini = 0.0\nsamples = 2\nvalue = [0, 2]\nclass = Yes", fillcolor="#399de5"] ;
270 -> 271 ;
272 [label="SleepHours <= 3.5\ngini = 0.169\nsamples = 43\nvalue = [39, 4]\nclass = No", fillcolor="#e88e4d"] ;
270 -> 272 ;
273 [label="gini = 0.0\nsamples = 1\nvalue = [0, 1]\nclass = Yes", fillcolor="#399de5"] ;
272 -> 273 ;
274 [label="HeightInMeters <= 1.765\ngini = 0.133\nsamples = 42\nvalue = [39, 3]\nclass = No", fillcolor="#e78b48"] ;
272 -> 274 ;
275 [label="gini = 0.0\nsamples = 23\nvalue = [23, 0]\nclass = No", fillcolor="#e58139"] ;
274 -> 275 ;
276 [label="SleepHours <= 9.5\ngini = 0.266\nsamples = 19\nvalue = [16, 3]\nclass = No", fillcolor="#ea995e"] ;
274 -> 276 ;
277 [label="gini = 0.198\nsamples = 18\nvalue = [16, 2]\nclass = No", fillcolor="#e89152"] ;
276 -> 277 ;
278 [label="gini = 0.0\nsamples = 1\nvalue = [0, 1]\nclass = Yes", fillcolor="#399de5"] ;
276 -> 278 ;
279 [label="HadAsthma <= 0.5\ngini = 0.022\nsamples = 440\nvalue = [435, 5]\nclass = No", fillcolor="#e5823b"] ;
259 -> 279 ;
280 [label="State <= 40.5\ngini = 0.011\nsamples = 373\nvalue = [371, 2]\nclass = No", fillcolor="#e5823a"] ;
279 -> 280 ;
281 [label="gini = 0.0\nsamples = 268\nvalue = [268, 0]\nclass = No", fillcolor="#e58139"] ;
280 -> 281 ;
282 [label="State <= 41.5\ngini = 0.037\nsamples = 105\nvalue = [103, 2]\nclass = No", fillcolor="#e6833d"] ;
280 -> 282 ;
283 [label="gini = 0.32\nsamples = 5\nvalue = [4, 1]\nclass = No", fillcolor="#eca06a"] ;
282 -> 283 ;
284 [label="HeightInMeters <= 1.56\ngini = 0.02\nsamples = 100\nvalue = [99, 1]\nclass = No", fillcolor="#e5823b"] ;
282 -> 284 ;
285 [label="gini = 0.18\nsamples = 10\nvalue = [9, 1]\nclass = No", fillcolor="#e88f4f"] ;
284 -> 285 ;
286 [label="gini = 0.0\nsamples = 90\nvalue = [90, 0]\nclass = No", fillcolor="#e58139"] ;
284 -> 286 ;
287 [label="SmokerStatus <= 0.5\ngini = 0.086\nsamples = 67\nvalue = [64, 3]\nclass = No", fillcolor="#e68742"] ;
279 -> 287 ;
288 [label="gini = 0.346\nsamples = 9\nvalue = [7, 2]\nclass = No", fillcolor="#eca572"] ;
287 -> 288 ;
289 [label="BMI <= 21.045\ngini = 0.034\nsamples = 58\nvalue = [57, 1]\nclass = No", fillcolor="#e5833c"] ;
287 -> 289 ;
290 [label="gini = 0.444\nsamples = 3\nvalue = [2, 1]\nclass = No", fillcolor="#f2c09c"] ;
289 -> 290 ;
291 [label="gini = 0.0\nsamples = 55\nvalue = [55, 0]\nclass = No", fillcolor="#e58139"] ;
289 -> 291 ;
292 [label="BMI <= 40.93\ngini = 0.184\nsamples = 39\nvalue = [35, 4]\nclass = No", fillcolor="#e88f50"] ;
258 -> 292 ;
293 [label="WeightInKilograms <= 59.19\ngini = 0.145\nsamples = 38\nvalue = [35, 3]\nclass = No", fillcolor="#e78c4a"] ;
292 -> 293 ;
294 [label="gini = 0.5\nsamples = 2\nvalue = [1, 1]\nclass = No", fillcolor="#ffffff"] ;
293 -> 294 ;
295 [label="MentalHealthDays <= 29.5\ngini = 0.105\nsamples = 36\nvalue = [34, 2]\nclass = No", fillcolor="#e78845"] ;
293 -> 295 ;
296 [label="gini = 0.444\nsamples = 3\nvalue = [2, 1]\nclass = No", fillcolor="#f2c09c"] ;
295 -> 296 ;
297 [label="CovidPos <= 1.0\ngini = 0.059\nsamples = 33\nvalue = [32, 1]\nclass = No", fillcolor="#e6853f"] ;
295 -> 297 ;
298 [label="gini = 0.0\nsamples = 25\nvalue = [25, 0]\nclass = No", fillcolor="#e58139"] ;
297 -> 298 ;
299 [label="gini = 0.219\nsamples = 8\nvalue = [7, 1]\nclass = No", fillcolor="#e99355"] ;
297 -> 299 ;
300 [label="gini = 0.0\nsamples = 1\nvalue = [0, 1]\nclass = Yes", fillcolor="#399de5"] ;
292 -> 300 ;
301 [label="SleepHours <= 4.5\ngini = 0.051\nsamples = 1462\nvalue = [1424, 38]\nclass = No", fillcolor="#e6843e"] ;
5 -> 301 ;
302 [label="BMI <= 46.03\ngini = 0.161\nsamples = 113\nvalue = [103, 10]\nclass = No", fillcolor="#e88d4c"] ;
301 -> 302 ;
303 [label="BlindOrVisionDifficulty <= 0.5\ngini = 0.135\nsamples = 110\nvalue = [102, 8]\nclass = No", fillcolor="#e78b49"] ;
302 -> 303 ;
304 [label="HeightInMeters <= 1.955\ngini = 0.097\nsamples = 98\nvalue = [93, 5]\nclass = No", fillcolor="#e68844"] ;
303 -> 304 ;
305 [label="HadDiabetes <= 0.5\ngini = 0.079\nsamples = 97\nvalue = [93, 4]\nclass = No", fillcolor="#e68642"] ;
304 -> 305 ;
306 [label="PhysicalHealthDays <= 29.0\ngini = 0.026\nsamples = 76\nvalue = [75, 1]\nclass = No", fillcolor="#e5833c"] ;
305 -> 306 ;
307 [label="gini = 0.0\nsamples = 67\nvalue = [67, 0]\nclass = No", fillcolor="#e58139"] ;
306 -> 307 ;
308 [label="gini = 0.198\nsamples = 9\nvalue = [8, 1]\nclass = No", fillcolor="#e89152"] ;
306 -> 308 ;
309 [label="BMI <= 28.075\ngini = 0.245\nsamples = 21\nvalue = [18, 3]\nclass = No", fillcolor="#e9965a"] ;
305 -> 309 ;
310 [label="gini = 0.5\nsamples = 4\nvalue = [2, 2]\nclass = No", fillcolor="#ffffff"] ;
309 -> 310 ;
311 [label="DifficultyErrands <= 0.5\ngini = 0.111\nsamples = 17\nvalue = [16, 1]\nclass = No", fillcolor="#e78945"] ;
309 -> 311 ;
312 [label="gini = 0.0\nsamples = 15\nvalue = [15, 0]\nclass = No", fillcolor="#e58139"] ;
311 -> 312 ;
313 [label="gini = 0.5\nsamples = 2\nvalue = [1, 1]\nclass = No", fillcolor="#ffffff"] ;
311 -> 313 ;
314 [label="gini = 0.0\nsamples = 1\nvalue = [0, 1]\nclass = Yes", fillcolor="#399de5"] ;
304 -> 314 ;
315 [label="gini = 0.375\nsamples = 12\nvalue = [9, 3]\nclass = No", fillcolor="#eeab7b"] ;
303 -> 315 ;
316 [label="gini = 0.444\nsamples = 3\nvalue = [1, 2]\nclass = Yes", fillcolor="#9ccef2"] ;
302 -> 316 ;
317 [label="HadSkinCancer <= 0.5\ngini = 0.041\nsamples = 1349\nvalue = [1321, 28]\nclass = No", fillcolor="#e6843d"] ;
301 -> 317 ;
318 [label="SmokerStatus <= 2.5\ngini = 0.035\nsamples = 1299\nvalue = [1276, 23]\nclass = No", fillcolor="#e5833d"] ;
317 -> 318 ;
319 [label="HeightInMeters <= 1.79\ngini = 0.052\nsamples = 756\nvalue = [736, 20]\nclass = No", fillcolor="#e6843e"] ;
318 -> 319 ;
320 [label="MentalHealthDays <= 0.5\ngini = 0.033\nsamples = 589\nvalue = [579, 10]\nclass = No", fillcolor="#e5833c"] ;
319 -> 320 ;
321 [label="WeightInKilograms <= 51.935\ngini = 0.073\nsamples = 212\nvalue = [204, 8]\nclass = No", fillcolor="#e68641"] ;
320 -> 321 ;
322 [label="gini = 0.346\nsamples = 9\nvalue = [7, 2]\nclass = No", fillcolor="#eca572"] ;
321 -> 322 ;
323 [label="AlcoholDrinkers <= 0.5\ngini = 0.057\nsamples = 203\nvalue = [197, 6]\nclass = No", fillcolor="#e6853f"] ;
321 -> 323 ;
324 [label="State <= 31.5\ngini = 0.111\nsamples = 102\nvalue = [96, 6]\nclass = No", fillcolor="#e78945"] ;
323 -> 324 ;
325 [label="HeightInMeters <= 1.535\ngini = 0.033\nsamples = 60\nvalue = [59, 1]\nclass = No", fillcolor="#e5833c"] ;
324 -> 325 ;
326 [label="gini = 0.375\nsamples = 4\nvalue = [3, 1]\nclass = No", fillcolor="#eeab7b"] ;
325 -> 326 ;
327 [label="gini = 0.0\nsamples = 56\nvalue = [56, 0]\nclass = No", fillcolor="#e58139"] ;
325 -> 327 ;
328 [label="RemovedTeeth <= 2.5\ngini = 0.21\nsamples = 42\nvalue = [37, 5]\nclass = No", fillcolor="#e99254"] ;
324 -> 328 ;
329 [label="gini = 0.105\nsamples = 36\nvalue = [34, 2]\nclass = No", fillcolor="#e78845"] ;
328 -> 329 ;
330 [label="gini = 0.5\nsamples = 6\nvalue = [3, 3]\nclass = No", fillcolor="#ffffff"] ;
328 -> 330 ;
331 [label="gini = 0.0\nsamples = 101\nvalue = [101, 0]\nclass = No", fillcolor="#e58139"] ;
323 -> 331 ;
332 [label="GeneralHealth <= 1.5\ngini = 0.011\nsamples = 377\nvalue = [375, 2]\nclass = No", fillcolor="#e5823a"] ;
320 -> 332 ;
333 [label="RemovedTeeth <= 0.5\ngini = 0.036\nsamples = 110\nvalue = [108, 2]\nclass = No", fillcolor="#e5833d"] ;
332 -> 333 ;
334 [label="HadAsthma <= 0.5\ngini = 0.102\nsamples = 37\nvalue = [35, 2]\nclass = No", fillcolor="#e68844"] ;
333 -> 334 ;
335 [label="gini = 0.0\nsamples = 23\nvalue = [23, 0]\nclass = No", fillcolor="#e58139"] ;
334 -> 335 ;
336 [label="gini = 0.245\nsamples = 14\nvalue = [12, 2]\nclass = No", fillcolor="#e9965a"] ;
334 -> 336 ;
337 [label="gini = 0.0\nsamples = 73\nvalue = [73, 0]\nclass = No", fillcolor="#e58139"] ;
333 -> 337 ;
338 [label="gini = 0.0\nsamples = 267\nvalue = [267, 0]\nclass = No", fillcolor="#e58139"] ;
332 -> 338 ;
339 [label="RemovedTeeth <= 1.5\ngini = 0.113\nsamples = 167\nvalue = [157, 10]\nclass = No", fillcolor="#e78946"] ;
319 -> 339 ;
340 [label="DifficultyDressingBathing <= 0.5\ngini = 0.191\nsamples = 84\nvalue = [75, 9]\nclass = No", fillcolor="#e89051"] ;
339 -> 340 ;
341 [label="HIVTesting <= 0.5\ngini = 0.174\nsamples = 83\nvalue = [75, 8]\nclass = No", fillcolor="#e88e4e"] ;
340 -> 341 ;
342 [label="GeneralHealth <= 3.5\ngini = 0.043\nsamples = 45\nvalue = [44, 1]\nclass = No", fillcolor="#e6843d"] ;
341 -> 342 ;
343 [label="gini = 0.0\nsamples = 34\nvalue = [34, 0]\nclass = No", fillcolor="#e58139"] ;
342 -> 343 ;
344 [label="gini = 0.165\nsamples = 11\nvalue = [10, 1]\nclass = No", fillcolor="#e88e4d"] ;
342 -> 344 ;
345 [label="BMI <= 31.87\ngini = 0.301\nsamples = 38\nvalue = [31, 7]\nclass = No", fillcolor="#eb9d66"] ;
341 -> 345 ;
346 [label="RaceEthnicityCategory <= 2.5\ngini = 0.137\nsamples = 27\nvalue = [25, 2]\nclass = No", fillcolor="#e78b49"] ;
345 -> 346 ;
347 [label="gini = 0.48\nsamples = 5\nvalue = [3, 2]\nclass = No", fillcolor="#f6d5bd"] ;
346 -> 347 ;
348 [label="gini = 0.0\nsamples = 22\nvalue = [22, 0]\nclass = No", fillcolor="#e58139"] ;
346 -> 348 ;
349 [label="gini = 0.496\nsamples = 11\nvalue = [6, 5]\nclass = No", fillcolor="#fbeade"] ;
345 -> 349 ;
350 [label="gini = 0.0\nsamples = 1\nvalue = [0, 1]\nclass = Yes", fillcolor="#399de5"] ;
340 -> 350 ;
351 [label="TetanusLast10Tdap <= 2.5\ngini = 0.024\nsamples = 83\nvalue = [82, 1]\nclass = No", fillcolor="#e5833b"] ;
339 -> 351 ;
352 [label="gini = 0.0\nsamples = 77\nvalue = [77, 0]\nclass = No", fillcolor="#e58139"] ;
351 -> 352 ;
353 [label="gini = 0.278\nsamples = 6\nvalue = [5, 1]\nclass = No", fillcolor="#ea9a61"] ;
351 -> 353 ;
354 [label="DifficultyDressingBathing <= 0.5\ngini = 0.011\nsamples = 543\nvalue = [540, 3]\nclass = No", fillcolor="#e5823a"] ;
318 -> 354 ;
355 [label="State <= 51.5\ngini = 0.007\nsamples = 539\nvalue = [537, 2]\nclass = No", fillcolor="#e5813a"] ;
354 -> 355 ;
356 [label="HadDiabetes <= 1.5\ngini = 0.004\nsamples = 524\nvalue = [523, 1]\nclass = No", fillcolor="#e58139"] ;
355 -> 356 ;
357 [label="gini = 0.0\nsamples = 471\nvalue = [471, 0]\nclass = No", fillcolor="#e58139"] ;
356 -> 357 ;
358 [label="WeightInKilograms <= 71.215\ngini = 0.037\nsamples = 53\nvalue = [52, 1]\nclass = No", fillcolor="#e6833d"] ;
356 -> 358 ;
359 [label="gini = 0.375\nsamples = 4\nvalue = [3, 1]\nclass = No", fillcolor="#eeab7b"] ;
358 -> 359 ;
360 [label="gini = 0.0\nsamples = 49\nvalue = [49, 0]\nclass = No", fillcolor="#e58139"] ;
358 -> 360 ;
361 [label="gini = 0.124\nsamples = 15\nvalue = [14, 1]\nclass = No", fillcolor="#e78a47"] ;
355 -> 361 ;
362 [label="gini = 0.375\nsamples = 4\nvalue = [3, 1]\nclass = No", fillcolor="#eeab7b"] ;
354 -> 362 ;
363 [label="BMI <= 23.3\ngini = 0.18\nsamples = 50\nvalue = [45, 5]\nclass = No", fillcolor="#e88f4f"] ;
317 -> 363 ;
364 [label="gini = 0.494\nsamples = 9\nvalue = [5, 4]\nclass = No", fillcolor="#fae6d7"] ;
363 -> 364 ;
365 [label="HadDiabetes <= 2.5\ngini = 0.048\nsamples = 41\nvalue = [40, 1]\nclass = No", fillcolor="#e6843e"] ;
363 -> 365 ;
366 [label="gini = 0.0\nsamples = 40\nvalue = [40, 0]\nclass = No", fillcolor="#e58139"] ;
365 -> 366 ;
367 [label="gini = 0.0\nsamples = 1\nvalue = [0, 1]\nclass = Yes", fillcolor="#399de5"] ;
365 -> 367 ;
368 [label="SmokerStatus <= 2.5\ngini = 0.044\nsamples = 4068\nvalue = [3977, 91]\nclass = No", fillcolor="#e6843e"] ;
4 -> 368 ;
369 [label="BMI <= 14.38\ngini = 0.063\nsamples = 2055\nvalue = [1988, 67]\nclass = No", fillcolor="#e68540"] ;
368 -> 369 ;
370 [label="gini = 0.5\nsamples = 2\nvalue = [1, 1]\nclass = No", fillcolor="#ffffff"] ;
369 -> 370 ;
371 [label="HeightInMeters <= 1.535\ngini = 0.062\nsamples = 2053\nvalue = [1987, 66]\nclass = No", fillcolor="#e68540"] ;
369 -> 371 ;
372 [label="WeightInKilograms <= 88.675\ngini = 0.178\nsamples = 91\nvalue = [82, 9]\nclass = No", fillcolor="#e88f4f"] ;
371 -> 372 ;
373 [label="AgeCategory <= 1.5\ngini = 0.032\nsamples = 61\nvalue = [60, 1]\nclass = No", fillcolor="#e5833c"] ;
372 -> 373 ;
374 [label="gini = 0.5\nsamples = 2\nvalue = [1, 1]\nclass = No", fillcolor="#ffffff"] ;
373 -> 374 ;
375 [label="gini = 0.0\nsamples = 59\nvalue = [59, 0]\nclass = No", fillcolor="#e58139"] ;
373 -> 375 ;
376 [label="State <= 29.0\ngini = 0.391\nsamples = 30\nvalue = [22, 8]\nclass = No", fillcolor="#eeaf81"] ;
372 -> 376 ;
377 [label="gini = 0.486\nsamples = 12\nvalue = [5, 7]\nclass = Yes", fillcolor="#c6e3f8"] ;
376 -> 377 ;
378 [label="State <= 51.5\ngini = 0.105\nsamples = 18\nvalue = [17, 1]\nclass = No", fillcolor="#e78845"] ;
376 -> 378 ;
379 [label="gini = 0.0\nsamples = 17\nvalue = [17, 0]\nclass = No", fillcolor="#e58139"] ;
378 -> 379 ;
380 [label="gini = 0.0\nsamples = 1\nvalue = [0, 1]\nclass = Yes", fillcolor="#399de5"] ;
378 -> 380 ;
381 [label="Sex <= 0.5\ngini = 0.056\nsamples = 1962\nvalue = [1905, 57]\nclass = No", fillcolor="#e6853f"] ;
371 -> 381 ;
382 [label="WeightInKilograms <= 114.535\ngini = 0.033\nsamples = 1176\nvalue = [1156, 20]\nclass = No", fillcolor="#e5833c"] ;
381 -> 382 ;
383 [label="State <= 9.5\ngini = 0.02\nsamples = 971\nvalue = [961, 10]\nclass = No", fillcolor="#e5823b"] ;
382 -> 383 ;
384 [label="AgeCategory <= 6.5\ngini = 0.065\nsamples = 149\nvalue = [144, 5]\nclass = No", fillcolor="#e68540"] ;
383 -> 384 ;
385 [label="gini = 0.0\nsamples = 101\nvalue = [101, 0]\nclass = No", fillcolor="#e58139"] ;
384 -> 385 ;
386 [label="GeneralHealth <= 1.5\ngini = 0.187\nsamples = 48\nvalue = [43, 5]\nclass = No", fillcolor="#e89050"] ;
384 -> 386 ;
387 [label="gini = 0.459\nsamples = 14\nvalue = [9, 5]\nclass = No", fillcolor="#f3c7a7"] ;
386 -> 387 ;
388 [label="gini = 0.0\nsamples = 34\nvalue = [34, 0]\nclass = No", fillcolor="#e58139"] ;
386 -> 388 ;
389 [label="HeightInMeters <= 1.815\ngini = 0.012\nsamples = 822\nvalue = [817, 5]\nclass = No", fillcolor="#e5823a"] ;
383 -> 389 ;
390 [label="WeightInKilograms <= 113.2\ngini = 0.01\nsamples = 811\nvalue = [807, 4]\nclass = No", fillcolor="#e5823a"] ;
389 -> 390 ;
391 [label="DifficultyConcentrating <= 0.5\ngini = 0.008\nsamples = 776\nvalue = [773, 3]\nclass = No", fillcolor="#e5813a"] ;
390 -> 391 ;
392 [label="gini = 0.0\nsamples = 432\nvalue = [432, 0]\nclass = No", fillcolor="#e58139"] ;
391 -> 392 ;
393 [label="RaceEthnicityCategory <= 0.5\ngini = 0.017\nsamples = 344\nvalue = [341, 3]\nclass = No", fillcolor="#e5823b"] ;
391 -> 393 ;
394 [label="gini = 0.142\nsamples = 13\nvalue = [12, 1]\nclass = No", fillcolor="#e78c49"] ;
393 -> 394 ;
395 [label="gini = 0.012\nsamples = 331\nvalue = [329, 2]\nclass = No", fillcolor="#e5823a"] ;
393 -> 395 ;
396 [label="PhysicalHealthDays <= 0.5\ngini = 0.056\nsamples = 35\nvalue = [34, 1]\nclass = No", fillcolor="#e6853f"] ;
390 -> 396 ;
397 [label="gini = 0.219\nsamples = 8\nvalue = [7, 1]\nclass = No", fillcolor="#e99355"] ;
396 -> 397 ;
398 [label="gini = 0.0\nsamples = 27\nvalue = [27, 0]\nclass = No", fillcolor="#e58139"] ;
396 -> 398 ;
399 [label="gini = 0.165\nsamples = 11\nvalue = [10, 1]\nclass = No", fillcolor="#e88e4d"] ;
389 -> 399 ;
400 [label="WeightInKilograms <= 115.44\ngini = 0.093\nsamples = 205\nvalue = [195, 10]\nclass = No", fillcolor="#e68743"] ;
382 -> 400 ;
401 [label="gini = 0.5\nsamples = 4\nvalue = [2, 2]\nclass = No", fillcolor="#ffffff"] ;
400 -> 401 ;
402 [label="HighRiskLastYear <= 0.5\ngini = 0.076\nsamples = 201\nvalue = [193, 8]\nclass = No", fillcolor="#e68641"] ;
400 -> 402 ;
403 [label="BlindOrVisionDifficulty <= 0.5\ngini = 0.061\nsamples = 191\nvalue = [185, 6]\nclass = No", fillcolor="#e6853f"] ;
402 -> 403 ;
404 [label="GeneralHealth <= 0.5\ngini = 0.035\nsamples = 170\nvalue = [167, 3]\nclass = No", fillcolor="#e5833d"] ;
403 -> 404 ;
405 [label="gini = 0.444\nsamples = 3\nvalue = [2, 1]\nclass = No", fillcolor="#f2c09c"] ;
404 -> 405 ;
406 [label="BMI <= 49.915\ngini = 0.024\nsamples = 167\nvalue = [165, 2]\nclass = No", fillcolor="#e5833b"] ;
404 -> 406 ;
407 [label="gini = 0.0\nsamples = 108\nvalue = [108, 0]\nclass = No", fillcolor="#e58139"] ;
406 -> 407 ;
408 [label="gini = 0.065\nsamples = 59\nvalue = [57, 2]\nclass = No", fillcolor="#e68540"] ;
406 -> 408 ;
409 [label="PhysicalHealthDays <= 12.0\ngini = 0.245\nsamples = 21\nvalue = [18, 3]\nclass = No", fillcolor="#e9965a"] ;
403 -> 409 ;
410 [label="gini = 0.0\nsamples = 14\nvalue = [14, 0]\nclass = No", fillcolor="#e58139"] ;
409 -> 410 ;
411 [label="gini = 0.49\nsamples = 7\nvalue = [4, 3]\nclass = No", fillcolor="#f8e0ce"] ;
409 -> 411 ;
412 [label="gini = 0.32\nsamples = 10\nvalue = [8, 2]\nclass = No", fillcolor="#eca06a"] ;
402 -> 412 ;
413 [label="AgeCategory <= 5.5\ngini = 0.09\nsamples = 786\nvalue = [749, 37]\nclass = No", fillcolor="#e68743"] ;
381 -> 413 ;
414 [label="SleepHours <= 14.5\ngini = 0.051\nsamples = 379\nvalue = [369, 10]\nclass = No", fillcolor="#e6843e"] ;
413 -> 414 ;
415 [label="SleepHours <= 5.5\ngini = 0.047\nsamples = 376\nvalue = [367, 9]\nclass = No", fillcolor="#e6843e"] ;
414 -> 415 ;
416 [label="DifficultyConcentrating <= 0.5\ngini = 0.108\nsamples = 122\nvalue = [115, 7]\nclass = No", fillcolor="#e78945"] ;
415 -> 416 ;
417 [label="WeightInKilograms <= 67.585\ngini = 0.191\nsamples = 56\nvalue = [50, 6]\nclass = No", fillcolor="#e89051"] ;
416 -> 417 ;
418 [label="gini = 0.444\nsamples = 6\nvalue = [4, 2]\nclass = No", fillcolor="#f2c09c"] ;
417 -> 418 ;
419 [label="AlcoholDrinkers <= 0.5\ngini = 0.147\nsamples = 50\nvalue = [46, 4]\nclass = No", fillcolor="#e78c4a"] ;
417 -> 419 ;
420 [label="gini = 0.0\nsamples = 26\nvalue = [26, 0]\nclass = No", fillcolor="#e58139"] ;
419 -> 420 ;
421 [label="gini = 0.278\nsamples = 24\nvalue = [20, 4]\nclass = No", fillcolor="#ea9a61"] ;
419 -> 421 ;
422 [label="WeightInKilograms <= 116.8\ngini = 0.03\nsamples = 66\nvalue = [65, 1]\nclass = No", fillcolor="#e5833c"] ;
416 -> 422 ;
423 [label="gini = 0.0\nsamples = 54\nvalue = [54, 0]\nclass = No", fillcolor="#e58139"] ;
422 -> 423 ;
424 [label="gini = 0.153\nsamples = 12\nvalue = [11, 1]\nclass = No", fillcolor="#e78c4b"] ;
422 -> 424 ;
425 [label="State <= 2.5\ngini = 0.016\nsamples = 254\nvalue = [252, 2]\nclass = No", fillcolor="#e5823b"] ;
415 -> 425 ;
426 [label="gini = 0.375\nsamples = 4\nvalue = [3, 1]\nclass = No", fillcolor="#eeab7b"] ;
425 -> 426 ;
427 [label="HeightInMeters <= 1.585\ngini = 0.008\nsamples = 250\nvalue = [249, 1]\nclass = No", fillcolor="#e5823a"] ;
425 -> 427 ;
428 [label="gini = 0.245\nsamples = 7\nvalue = [6, 1]\nclass = No", fillcolor="#e9965a"] ;
427 -> 428 ;
429 [label="gini = 0.0\nsamples = 243\nvalue = [243, 0]\nclass = No", fillcolor="#e58139"] ;
427 -> 429 ;
430 [label="gini = 0.444\nsamples = 3\nvalue = [2, 1]\nclass = No", fillcolor="#f2c09c"] ;
414 -> 430 ;
431 [label="WeightInKilograms <= 142.88\ngini = 0.124\nsamples = 407\nvalue = [380, 27]\nclass = No", fillcolor="#e78a47"] ;
413 -> 431 ;
432 [label="HIVTesting <= 0.5\ngini = 0.109\nsamples = 379\nvalue = [357, 22]\nclass = No", fillcolor="#e78945"] ;
431 -> 432 ;
433 [label="GeneralHealth <= 0.5\ngini = 0.068\nsamples = 198\nvalue = [191, 7]\nclass = No", fillcolor="#e68640"] ;
432 -> 433 ;
434 [label="gini = 0.408\nsamples = 7\nvalue = [5, 2]\nclass = No", fillcolor="#efb388"] ;
433 -> 434 ;
435 [label="ECigaretteUsage <= 1.5\ngini = 0.051\nsamples = 191\nvalue = [186, 5]\nclass = No", fillcolor="#e6843e"] ;
433 -> 435 ;
436 [label="BMI <= 38.63\ngini = 0.033\nsamples = 181\nvalue = [178, 3]\nclass = No", fillcolor="#e5833c"] ;
435 -> 436 ;
437 [label="gini = 0.024\nsamples = 168\nvalue = [166, 2]\nclass = No", fillcolor="#e5833b"] ;
436 -> 437 ;
438 [label="gini = 0.142\nsamples = 13\nvalue = [12, 1]\nclass = No", fillcolor="#e78c49"] ;
436 -> 438 ;
439 [label="gini = 0.32\nsamples = 10\nvalue = [8, 2]\nclass = No", fillcolor="#eca06a"] ;
435 -> 439 ;
440 [label="State <= 39.5\ngini = 0.152\nsamples = 181\nvalue = [166, 15]\nclass = No", fillcolor="#e78c4b"] ;
432 -> 440 ;
441 [label="State <= 5.5\ngini = 0.087\nsamples = 132\nvalue = [126, 6]\nclass = No", fillcolor="#e68742"] ;
440 -> 441 ;
442 [label="DifficultyErrands <= 0.5\ngini = 0.287\nsamples = 23\nvalue = [19, 4]\nclass = No", fillcolor="#ea9c63"] ;
441 -> 442 ;
443 [label="gini = 0.172\nsamples = 21\nvalue = [19, 2]\nclass = No", fillcolor="#e88e4e"] ;
442 -> 443 ;
444 [label="gini = 0.0\nsamples = 2\nvalue = [0, 2]\nclass = Yes", fillcolor="#399de5"] ;
442 -> 444 ;
445 [label="WeightInKilograms <= 130.405\ngini = 0.036\nsamples = 109\nvalue = [107, 2]\nclass = No", fillcolor="#e5833d"] ;
441 -> 445 ;
446 [label="gini = 0.019\nsamples = 103\nvalue = [102, 1]\nclass = No", fillcolor="#e5823b"] ;
445 -> 446 ;
447 [label="gini = 0.278\nsamples = 6\nvalue = [5, 1]\nclass = No", fillcolor="#ea9a61"] ;
445 -> 447 ;
448 [label="PhysicalHealthDays <= 12.5\ngini = 0.3\nsamples = 49\nvalue = [40, 9]\nclass = No", fillcolor="#eb9d66"] ;
440 -> 448 ;
449 [label="PhysicalHealthDays <= 7.5\ngini = 0.391\nsamples = 30\nvalue = [22, 8]\nclass = No", fillcolor="#eeaf81"] ;
448 -> 449 ;
450 [label="gini = 0.269\nsamples = 25\nvalue = [21, 4]\nclass = No", fillcolor="#ea995f"] ;
449 -> 450 ;
451 [label="gini = 0.32\nsamples = 5\nvalue = [1, 4]\nclass = Yes", fillcolor="#6ab6ec"] ;
449 -> 451 ;
452 [label="WeightInKilograms <= 120.205\ngini = 0.1\nsamples = 19\nvalue = [18, 1]\nclass = No", fillcolor="#e68844"] ;
448 -> 452 ;
453 [label="gini = 0.0\nsamples = 17\nvalue = [17, 0]\nclass = No", fillcolor="#e58139"] ;
452 -> 453 ;
454 [label="gini = 0.5\nsamples = 2\nvalue = [1, 1]\nclass = No", fillcolor="#ffffff"] ;
452 -> 454 ;
455 [label="HeightInMeters <= 1.815\ngini = 0.293\nsamples = 28\nvalue = [23, 5]\nclass = No", fillcolor="#eb9c64"] ;
431 -> 455 ;
456 [label="gini = 0.48\nsamples = 10\nvalue = [6, 4]\nclass = No", fillcolor="#f6d5bd"] ;
455 -> 456 ;
457 [label="SleepHours <= 9.0\ngini = 0.105\nsamples = 18\nvalue = [17, 1]\nclass = No", fillcolor="#e78845"] ;
455 -> 457 ;
458 [label="gini = 0.0\nsamples = 16\nvalue = [16, 0]\nclass = No", fillcolor="#e58139"] ;
457 -> 458 ;
459 [label="gini = 0.5\nsamples = 2\nvalue = [1, 1]\nclass = No", fillcolor="#ffffff"] ;
457 -> 459 ;
460 [label="HeightInMeters <= 1.58\ngini = 0.024\nsamples = 2013\nvalue = [1989, 24]\nclass = No", fillcolor="#e5833b"] ;
368 -> 460 ;
461 [label="PhysicalHealthDays <= 26.5\ngini = 0.047\nsamples = 419\nvalue = [409, 10]\nclass = No", fillcolor="#e6843e"] ;
460 -> 461 ;
462 [label="HadKidneyDisease <= 0.5\ngini = 0.019\nsamples = 316\nvalue = [313, 3]\nclass = No", fillcolor="#e5823b"] ;
461 -> 462 ;
463 [label="HadAsthma <= 0.5\ngini = 0.013\nsamples = 313\nvalue = [311, 2]\nclass = No", fillcolor="#e5823a"] ;
462 -> 463 ;
464 [label="gini = 0.0\nsamples = 247\nvalue = [247, 0]\nclass = No", fillcolor="#e58139"] ;
463 -> 464 ;
465 [label="WeightInKilograms <= 97.975\ngini = 0.059\nsamples = 66\nvalue = [64, 2]\nclass = No", fillcolor="#e6853f"] ;
463 -> 465 ;
466 [label="gini = 0.0\nsamples = 46\nvalue = [46, 0]\nclass = No", fillcolor="#e58139"] ;
465 -> 466 ;
467 [label="AgeCategory <= 6.5\ngini = 0.18\nsamples = 20\nvalue = [18, 2]\nclass = No", fillcolor="#e88f4f"] ;
465 -> 467 ;
468 [label="gini = 0.0\nsamples = 14\nvalue = [14, 0]\nclass = No", fillcolor="#e58139"] ;
467 -> 468 ;
469 [label="gini = 0.444\nsamples = 6\nvalue = [4, 2]\nclass = No", fillcolor="#f2c09c"] ;
467 -> 469 ;
470 [label="gini = 0.444\nsamples = 3\nvalue = [2, 1]\nclass = No", fillcolor="#f2c09c"] ;
462 -> 470 ;
471 [label="WeightInKilograms <= 47.4\ngini = 0.127\nsamples = 103\nvalue = [96, 7]\nclass = No", fillcolor="#e78a47"] ;
461 -> 471 ;
472 [label="gini = 0.0\nsamples = 1\nvalue = [0, 1]\nclass = Yes", fillcolor="#399de5"] ;
471 -> 472 ;
473 [label="PhysicalHealthDays <= 29.0\ngini = 0.111\nsamples = 102\nvalue = [96, 6]\nclass = No", fillcolor="#e78945"] ;
471 -> 473 ;
474 [label="gini = 0.444\nsamples = 3\nvalue = [2, 1]\nclass = No", fillcolor="#f2c09c"] ;
473 -> 474 ;
475 [label="FluVaxLast12 <= 0.5\ngini = 0.096\nsamples = 99\nvalue = [94, 5]\nclass = No", fillcolor="#e68844"] ;
473 -> 475 ;
476 [label="BMI <= 24.39\ngini = 0.034\nsamples = 57\nvalue = [56, 1]\nclass = No", fillcolor="#e5833d"] ;
475 -> 476 ;
477 [label="gini = 0.444\nsamples = 3\nvalue = [2, 1]\nclass = No", fillcolor="#f2c09c"] ;
476 -> 477 ;
478 [label="gini = 0.0\nsamples = 54\nvalue = [54, 0]\nclass = No", fillcolor="#e58139"] ;
476 -> 478 ;
479 [label="RaceEthnicityCategory <= 3.5\ngini = 0.172\nsamples = 42\nvalue = [38, 4]\nclass = No", fillcolor="#e88e4e"] ;
475 -> 479 ;
480 [label="State <= 14.0\ngini = 0.308\nsamples = 21\nvalue = [17, 4]\nclass = No", fillcolor="#eb9f68"] ;
479 -> 480 ;
481 [label="gini = 0.444\nsamples = 3\nvalue = [1, 2]\nclass = Yes", fillcolor="#9ccef2"] ;
480 -> 481 ;
482 [label="HadCOPD <= 0.5\ngini = 0.198\nsamples = 18\nvalue = [16, 2]\nclass = No", fillcolor="#e89152"] ;
480 -> 482 ;
483 [label="State <= 42.5\ngini = 0.111\nsamples = 17\nvalue = [16, 1]\nclass = No", fillcolor="#e78945"] ;
482 -> 483 ;
484 [label="gini = 0.0\nsamples = 12\nvalue = [12, 0]\nclass = No", fillcolor="#e58139"] ;
483 -> 484 ;
485 [label="gini = 0.32\nsamples = 5\nvalue = [4, 1]\nclass = No", fillcolor="#eca06a"] ;
483 -> 485 ;
486 [label="gini = 0.0\nsamples = 1\nvalue = [0, 1]\nclass = Yes", fillcolor="#399de5"] ;
482 -> 486 ;
487 [label="gini = 0.0\nsamples = 21\nvalue = [21, 0]\nclass = No", fillcolor="#e58139"] ;
479 -> 487 ;
488 [label="GeneralHealth <= 1.5\ngini = 0.017\nsamples = 1594\nvalue = [1580, 14]\nclass = No", fillcolor="#e5823b"] ;
460 -> 488 ;
489 [label="gini = 0.0\nsamples = 577\nvalue = [577, 0]\nclass = No", fillcolor="#e58139"] ;
488 -> 489 ;
490 [label="SleepHours <= 11.5\ngini = 0.027\nsamples = 1017\nvalue = [1003, 14]\nclass = No", fillcolor="#e5833c"] ;
488 -> 490 ;
491 [label="PhysicalHealthDays <= 0.5\ngini = 0.025\nsamples = 1010\nvalue = [997, 13]\nclass = No", fillcolor="#e5833c"] ;
490 -> 491 ;
492 [label="BMI <= 21.74\ngini = 0.052\nsamples = 339\nvalue = [330, 9]\nclass = No", fillcolor="#e6843e"] ;
491 -> 492 ;
493 [label="gini = 0.26\nsamples = 13\nvalue = [11, 2]\nclass = No", fillcolor="#ea985d"] ;
492 -> 493 ;
494 [label="SleepHours <= 4.5\ngini = 0.042\nsamples = 326\nvalue = [319, 7]\nclass = No", fillcolor="#e6843d"] ;
492 -> 494 ;
495 [label="LastCheckupTime <= 0.5\ngini = 0.198\nsamples = 18\nvalue = [16, 2]\nclass = No", fillcolor="#e89152"] ;
494 -> 495 ;
496 [label="gini = 0.0\nsamples = 1\nvalue = [0, 1]\nclass = Yes", fillcolor="#399de5"] ;
495 -> 496 ;
497 [label="ECigaretteUsage <= 0.5\ngini = 0.111\nsamples = 17\nvalue = [16, 1]\nclass = No", fillcolor="#e78945"] ;
495 -> 497 ;
498 [label="gini = 0.0\nsamples = 13\nvalue = [13, 0]\nclass = No", fillcolor="#e58139"] ;
497 -> 498 ;
499 [label="gini = 0.375\nsamples = 4\nvalue = [3, 1]\nclass = No", fillcolor="#eeab7b"] ;
497 -> 499 ;
500 [label="SleepHours <= 9.5\ngini = 0.032\nsamples = 308\nvalue = [303, 5]\nclass = No", fillcolor="#e5833c"] ;
494 -> 500 ;
501 [label="AgeCategory <= 6.5\ngini = 0.026\nsamples = 299\nvalue = [295, 4]\nclass = No", fillcolor="#e5833c"] ;
500 -> 501 ;
502 [label="DeafOrHardOfHearing <= 0.5\ngini = 0.01\nsamples = 203\nvalue = [202, 1]\nclass = No", fillcolor="#e5823a"] ;
501 -> 502 ;
503 [label="gini = 0.0\nsamples = 192\nvalue = [192, 0]\nclass = No", fillcolor="#e58139"] ;
502 -> 503 ;
504 [label="gini = 0.165\nsamples = 11\nvalue = [10, 1]\nclass = No", fillcolor="#e88e4d"] ;
502 -> 504 ;
505 [label="WeightInKilograms <= 68.495\ngini = 0.061\nsamples = 96\nvalue = [93, 3]\nclass = No", fillcolor="#e6853f"] ;
501 -> 505 ;
506 [label="gini = 0.32\nsamples = 5\nvalue = [4, 1]\nclass = No", fillcolor="#eca06a"] ;
505 -> 506 ;
507 [label="gini = 0.043\nsamples = 91\nvalue = [89, 2]\nclass = No", fillcolor="#e6843d"] ;
505 -> 507 ;
508 [label="gini = 0.198\nsamples = 9\nvalue = [8, 1]\nclass = No", fillcolor="#e89152"] ;
500 -> 508 ;
509 [label="HadCOPD <= 0.5\ngini = 0.012\nsamples = 671\nvalue = [667, 4]\nclass = No", fillcolor="#e5823a"] ;
491 -> 509 ;
510 [label="HadKidneyDisease <= 0.5\ngini = 0.009\nsamples = 654\nvalue = [651, 3]\nclass = No", fillcolor="#e5823a"] ;
509 -> 510 ;
511 [label="MentalHealthDays <= 0.5\ngini = 0.006\nsamples = 626\nvalue = [624, 2]\nclass = No", fillcolor="#e5813a"] ;
510 -> 511 ;
512 [label="WeightInKilograms <= 135.625\ngini = 0.019\nsamples = 206\nvalue = [204, 2]\nclass = No", fillcolor="#e5823b"] ;
511 -> 512 ;
513 [label="SleepHours <= 5.5\ngini = 0.011\nsamples = 188\nvalue = [187, 1]\nclass = No", fillcolor="#e5823a"] ;
512 -> 513 ;
514 [label="gini = 0.071\nsamples = 27\nvalue = [26, 1]\nclass = No", fillcolor="#e68641"] ;
513 -> 514 ;
515 [label="gini = 0.0\nsamples = 161\nvalue = [161, 0]\nclass = No", fillcolor="#e58139"] ;
513 -> 515 ;
516 [label="BMI <= 42.48\ngini = 0.105\nsamples = 18\nvalue = [17, 1]\nclass = No", fillcolor="#e78845"] ;
512 -> 516 ;
517 [label="gini = 0.5\nsamples = 2\nvalue = [1, 1]\nclass = No", fillcolor="#ffffff"] ;
516 -> 517 ;
518 [label="gini = 0.0\nsamples = 16\nvalue = [16, 0]\nclass = No", fillcolor="#e58139"] ;
516 -> 518 ;
519 [label="gini = 0.0\nsamples = 420\nvalue = [420, 0]\nclass = No", fillcolor="#e58139"] ;
511 -> 519 ;
520 [label="BMI <= 26.92\ngini = 0.069\nsamples = 28\nvalue = [27, 1]\nclass = No", fillcolor="#e68640"] ;
510 -> 520 ;
521 [label="gini = 0.444\nsamples = 3\nvalue = [2, 1]\nclass = No", fillcolor="#f2c09c"] ;
520 -> 521 ;
522 [label="gini = 0.0\nsamples = 25\nvalue = [25, 0]\nclass = No", fillcolor="#e58139"] ;
520 -> 522 ;
523 [label="LastCheckupTime <= 0.5\ngini = 0.111\nsamples = 17\nvalue = [16, 1]\nclass = No", fillcolor="#e78945"] ;
509 -> 523 ;
524 [label="gini = 0.0\nsamples = 1\nvalue = [0, 1]\nclass = Yes", fillcolor="#399de5"] ;
523 -> 524 ;
525 [label="gini = 0.0\nsamples = 16\nvalue = [16, 0]\nclass = No", fillcolor="#e58139"] ;
523 -> 525 ;
526 [label="gini = 0.245\nsamples = 7\nvalue = [6, 1]\nclass = No", fillcolor="#e9965a"] ;
490 -> 526 ;
527 [label="DifficultyWalking <= 0.5\ngini = 0.048\nsamples = 52504\nvalue = [51214, 1290]\nclass = No", fillcolor="#e6843e"] ;
3 -> 527 ;
528 [label="Sex <= 0.5\ngini = 0.041\nsamples = 45122\nvalue = [44182, 940]\nclass = No", fillcolor="#e6843d"] ;
527 -> 528 ;
529 [label="AgeCategory <= 10.5\ngini = 0.028\nsamples = 26271\nvalue = [25896, 375]\nclass = No", fillcolor="#e5833c"] ;
528 -> 529 ;
530 [label="GeneralHealth <= 0.5\ngini = 0.022\nsamples = 19412\nvalue = [19195, 217]\nclass = No", fillcolor="#e5823b"] ;
529 -> 530 ;
531 [label="HeightInMeters <= 1.435\ngini = 0.005\nsamples = 4318\nvalue = [4307, 11]\nclass = No", fillcolor="#e5813a"] ;
530 -> 531 ;
532 [label="gini = 0.245\nsamples = 7\nvalue = [6, 1]\nclass = No", fillcolor="#e9965a"] ;
531 -> 532 ;
533 [label="HadCOPD <= 0.5\ngini = 0.005\nsamples = 4311\nvalue = [4301, 10]\nclass = No", fillcolor="#e58139"] ;
531 -> 533 ;
534 [label="DifficultyConcentrating <= 0.5\ngini = 0.004\nsamples = 4258\nvalue = [4249, 9]\nclass = No", fillcolor="#e58139"] ;
533 -> 534 ;
535 [label="TetanusLast10Tdap <= 1.5\ngini = 0.004\nsamples = 4206\nvalue = [4198, 8]\nclass = No", fillcolor="#e58139"] ;
534 -> 535 ;
536 [label="RemovedTeeth <= 0.5\ngini = 0.001\nsamples = 2815\nvalue = [2813, 2]\nclass = No", fillcolor="#e58139"] ;
535 -> 536 ;
537 [label="HeightInMeters <= 1.615\ngini = 0.005\nsamples = 834\nvalue = [832, 2]\nclass = No", fillcolor="#e58139"] ;
536 -> 537 ;
538 [label="State <= 48.5\ngini = 0.014\nsamples = 292\nvalue = [290, 2]\nclass = No", fillcolor="#e5823a"] ;
537 -> 538 ;
539 [label="gini = 0.008\nsamples = 263\nvalue = [262, 1]\nclass = No", fillcolor="#e5813a"] ;
538 -> 539 ;
540 [label="gini = 0.067\nsamples = 29\nvalue = [28, 1]\nclass = No", fillcolor="#e68640"] ;
538 -> 540 ;
541 [label="gini = 0.0\nsamples = 542\nvalue = [542, 0]\nclass = No", fillcolor="#e58139"] ;
537 -> 541 ;
542 [label="gini = 0.0\nsamples = 1981\nvalue = [1981, 0]\nclass = No", fillcolor="#e58139"] ;
536 -> 542 ;
543 [label="BMI <= 19.34\ngini = 0.009\nsamples = 1391\nvalue = [1385, 6]\nclass = No", fillcolor="#e5823a"] ;
535 -> 543 ;
544 [label="BMI <= 19.265\ngini = 0.055\nsamples = 71\nvalue = [69, 2]\nclass = No", fillcolor="#e6853f"] ;
543 -> 544 ;
545 [label="WeightInKilograms <= 59.42\ngini = 0.028\nsamples = 70\nvalue = [69, 1]\nclass = No", fillcolor="#e5833c"] ;
544 -> 545 ;
546 [label="gini = 0.0\nsamples = 68\nvalue = [68, 0]\nclass = No", fillcolor="#e58139"] ;
545 -> 546 ;
547 [label="gini = 0.5\nsamples = 2\nvalue = [1, 1]\nclass = No", fillcolor="#ffffff"] ;
545 -> 547 ;
548 [label="gini = 0.0\nsamples = 1\nvalue = [0, 1]\nclass = Yes", fillcolor="#399de5"] ;
544 -> 548 ;
549 [label="BMI <= 27.425\ngini = 0.006\nsamples = 1320\nvalue = [1316, 4]\nclass = No", fillcolor="#e5813a"] ;
543 -> 549 ;
550 [label="CovidPos <= 1.5\ngini = 0.002\nsamples = 989\nvalue = [988, 1]\nclass = No", fillcolor="#e58139"] ;
549 -> 550 ;
551 [label="gini = 0.0\nsamples = 800\nvalue = [800, 0]\nclass = No", fillcolor="#e58139"] ;
550 -> 551 ;
552 [label="gini = 0.011\nsamples = 189\nvalue = [188, 1]\nclass = No", fillcolor="#e5823a"] ;
550 -> 552 ;
553 [label="WeightInKilograms <= 68.265\ngini = 0.018\nsamples = 331\nvalue = [328, 3]\nclass = No", fillcolor="#e5823b"] ;
549 -> 553 ;
554 [label="gini = 0.18\nsamples = 20\nvalue = [18, 2]\nclass = No", fillcolor="#e88f4f"] ;
553 -> 554 ;
555 [label="gini = 0.006\nsamples = 311\nvalue = [310, 1]\nclass = No", fillcolor="#e5813a"] ;
553 -> 555 ;
556 [label="SleepHours <= 8.5\ngini = 0.038\nsamples = 52\nvalue = [51, 1]\nclass = No", fillcolor="#e6833d"] ;
534 -> 556 ;
557 [label="gini = 0.0\nsamples = 45\nvalue = [45, 0]\nclass = No", fillcolor="#e58139"] ;
556 -> 557 ;
558 [label="gini = 0.245\nsamples = 7\nvalue = [6, 1]\nclass = No", fillcolor="#e9965a"] ;
556 -> 558 ;
559 [label="State <= 49.5\ngini = 0.037\nsamples = 53\nvalue = [52, 1]\nclass = No", fillcolor="#e6833d"] ;
533 -> 559 ;
560 [label="gini = 0.0\nsamples = 50\nvalue = [50, 0]\nclass = No", fillcolor="#e58139"] ;
559 -> 560 ;
561 [label="gini = 0.444\nsamples = 3\nvalue = [2, 1]\nclass = No", fillcolor="#f2c09c"] ;
559 -> 561 ;
562 [label="GeneralHealth <= 3.5\ngini = 0.027\nsamples = 15094\nvalue = [14888, 206]\nclass = No", fillcolor="#e5833c"] ;
530 -> 562 ;
563 [label="AlcoholDrinkers <= 0.5\ngini = 0.04\nsamples = 6214\nvalue = [6087, 127]\nclass = No", fillcolor="#e6843d"] ;
562 -> 563 ;
564 [label="SmokerStatus <= 1.5\ngini = 0.05\nsamples = 3579\nvalue = [3487, 92]\nclass = No", fillcolor="#e6843e"] ;
563 -> 564 ;
565 [label="WeightInKilograms <= 99.565\ngini = 0.094\nsamples = 423\nvalue = [402, 21]\nclass = No", fillcolor="#e68843"] ;
564 -> 565 ;
566 [label="HadKidneyDisease <= 0.5\ngini = 0.074\nsamples = 390\nvalue = [375, 15]\nclass = No", fillcolor="#e68641"] ;
565 -> 566 ;
567 [label="HadDiabetes <= 0.5\ngini = 0.062\nsamples = 372\nvalue = [360, 12]\nclass = No", fillcolor="#e68540"] ;
566 -> 567 ;
568 [label="HadSkinCancer <= 0.5\ngini = 0.035\nsamples = 279\nvalue = [274, 5]\nclass = No", fillcolor="#e5833d"] ;
567 -> 568 ;
569 [label="gini = 0.023\nsamples = 258\nvalue = [255, 3]\nclass = No", fillcolor="#e5823b"] ;
568 -> 569 ;
570 [label="gini = 0.172\nsamples = 21\nvalue = [19, 2]\nclass = No", fillcolor="#e88e4e"] ;
568 -> 570 ;
571 [label="HadArthritis <= 0.5\ngini = 0.139\nsamples = 93\nvalue = [86, 7]\nclass = No", fillcolor="#e78b49"] ;
567 -> 571 ;
572 [label="gini = 0.043\nsamples = 46\nvalue = [45, 1]\nclass = No", fillcolor="#e6843d"] ;
571 -> 572 ;
573 [label="gini = 0.223\nsamples = 47\nvalue = [41, 6]\nclass = No", fillcolor="#e99356"] ;
571 -> 573 ;
574 [label="SleepHours <= 7.5\ngini = 0.278\nsamples = 18\nvalue = [15, 3]\nclass = No", fillcolor="#ea9a61"] ;
566 -> 574 ;
575 [label="gini = 0.0\nsamples = 11\nvalue = [11, 0]\nclass = No", fillcolor="#e58139"] ;
574 -> 575 ;
576 [label="gini = 0.49\nsamples = 7\nvalue = [4, 3]\nclass = No", fillcolor="#f8e0ce"] ;
574 -> 576 ;
577 [label="State <= 8.5\ngini = 0.298\nsamples = 33\nvalue = [27, 6]\nclass = No", fillcolor="#eb9d65"] ;
565 -> 577 ;
578 [label="gini = 0.5\nsamples = 8\nvalue = [4, 4]\nclass = No", fillcolor="#ffffff"] ;
577 -> 578 ;
579 [label="SleepHours <= 8.5\ngini = 0.147\nsamples = 25\nvalue = [23, 2]\nclass = No", fillcolor="#e78c4a"] ;
577 -> 579 ;
580 [label="SleepHours <= 5.5\ngini = 0.08\nsamples = 24\nvalue = [23, 1]\nclass = No", fillcolor="#e68642"] ;
579 -> 580 ;
581 [label="gini = 0.5\nsamples = 2\nvalue = [1, 1]\nclass = No", fillcolor="#ffffff"] ;
580 -> 581 ;
582 [label="gini = 0.0\nsamples = 22\nvalue = [22, 0]\nclass = No", fillcolor="#e58139"] ;
580 -> 582 ;
583 [label="gini = 0.0\nsamples = 1\nvalue = [0, 1]\nclass = Yes", fillcolor="#399de5"] ;
579 -> 583 ;
584 [label="SleepHours <= 2.5\ngini = 0.044\nsamples = 3156\nvalue = [3085, 71]\nclass = No", fillcolor="#e6843e"] ;
564 -> 584 ;
585 [label="gini = 0.26\nsamples = 13\nvalue = [11, 2]\nclass = No", fillcolor="#ea985d"] ;
584 -> 585 ;
586 [label="WeightInKilograms <= 47.855\ngini = 0.043\nsamples = 3143\nvalue = [3074, 69]\nclass = No", fillcolor="#e6843d"] ;
584 -> 586 ;
587 [label="HadKidneyDisease <= 0.5\ngini = 0.131\nsamples = 57\nvalue = [53, 4]\nclass = No", fillcolor="#e78b48"] ;
586 -> 587 ;
588 [label="WeightInKilograms <= 47.4\ngini = 0.101\nsamples = 56\nvalue = [53, 3]\nclass = No", fillcolor="#e68844"] ;
587 -> 588 ;
589 [label="gini = 0.043\nsamples = 46\nvalue = [45, 1]\nclass = No", fillcolor="#e6843d"] ;
588 -> 589 ;
590 [label="gini = 0.32\nsamples = 10\nvalue = [8, 2]\nclass = No", fillcolor="#eca06a"] ;
588 -> 590 ;
591 [label="gini = 0.0\nsamples = 1\nvalue = [0, 1]\nclass = Yes", fillcolor="#399de5"] ;
587 -> 591 ;
592 [label="SmokerStatus <= 2.5\ngini = 0.041\nsamples = 3086\nvalue = [3021, 65]\nclass = No", fillcolor="#e6843d"] ;
586 -> 592 ;
593 [label="HeightInMeters <= 1.765\ngini = 0.059\nsamples = 859\nvalue = [833, 26]\nclass = No", fillcolor="#e6853f"] ;
592 -> 593 ;
594 [label="gini = 0.054\nsamples = 827\nvalue = [804, 23]\nclass = No", fillcolor="#e6853f"] ;
593 -> 594 ;
595 [label="gini = 0.17\nsamples = 32\nvalue = [29, 3]\nclass = No", fillcolor="#e88e4d"] ;
593 -> 595 ;
596 [label="State <= 1.5\ngini = 0.034\nsamples = 2227\nvalue = [2188, 39]\nclass = No", fillcolor="#e5833d"] ;
592 -> 596 ;
597 [label="gini = 0.101\nsamples = 56\nvalue = [53, 3]\nclass = No", fillcolor="#e68844"] ;
596 -> 597 ;
598 [label="gini = 0.033\nsamples = 2171\nvalue = [2135, 36]\nclass = No", fillcolor="#e5833c"] ;
596 -> 598 ;
599 [label="HeightInMeters <= 1.945\ngini = 0.026\nsamples = 2635\nvalue = [2600, 35]\nclass = No", fillcolor="#e5833c"] ;
563 -> 599 ;
600 [label="WeightInKilograms <= 44.225\ngini = 0.025\nsamples = 2633\nvalue = [2599, 34]\nclass = No", fillcolor="#e5833c"] ;
599 -> 600 ;
601 [label="gini = 0.245\nsamples = 14\nvalue = [12, 2]\nclass = No", fillcolor="#e9965a"] ;
600 -> 601 ;
602 [label="DifficultyErrands <= 0.5\ngini = 0.024\nsamples = 2619\nvalue = [2587, 32]\nclass = No", fillcolor="#e5833b"] ;
600 -> 602 ;
603 [label="HIVTesting <= 0.5\ngini = 0.022\nsamples = 2558\nvalue = [2529, 29]\nclass = No", fillcolor="#e5823b"] ;
602 -> 603 ;
604 [label="HeightInMeters <= 1.615\ngini = 0.027\nsamples = 2008\nvalue = [1980, 28]\nclass = No", fillcolor="#e5833c"] ;
603 -> 604 ;
605 [label="gini = 0.01\nsamples = 780\nvalue = [776, 4]\nclass = No", fillcolor="#e5823a"] ;
604 -> 605 ;
606 [label="gini = 0.038\nsamples = 1228\nvalue = [1204, 24]\nclass = No", fillcolor="#e6843d"] ;
604 -> 606 ;
607 [label="PhysicalHealthDays <= 17.5\ngini = 0.004\nsamples = 550\nvalue = [549, 1]\nclass = No", fillcolor="#e58139"] ;
603 -> 607 ;
608 [label="gini = 0.0\nsamples = 510\nvalue = [510, 0]\nclass = No", fillcolor="#e58139"] ;
607 -> 608 ;
609 [label="gini = 0.049\nsamples = 40\nvalue = [39, 1]\nclass = No", fillcolor="#e6843e"] ;
607 -> 609 ;
610 [label="State <= 49.5\ngini = 0.094\nsamples = 61\nvalue = [58, 3]\nclass = No", fillcolor="#e68843"] ;
602 -> 610 ;
611 [label="RaceEthnicityCategory <= 3.5\ngini = 0.038\nsamples = 52\nvalue = [51, 1]\nclass = No", fillcolor="#e6833d"] ;
610 -> 611 ;
612 [label="gini = 0.245\nsamples = 7\nvalue = [6, 1]\nclass = No", fillcolor="#e9965a"] ;
611 -> 612 ;
613 [label="gini = 0.0\nsamples = 45\nvalue = [45, 0]\nclass = No", fillcolor="#e58139"] ;
611 -> 613 ;
614 [label="gini = 0.346\nsamples = 9\nvalue = [7, 2]\nclass = No", fillcolor="#eca572"] ;
610 -> 614 ;
615 [label="gini = 0.5\nsamples = 2\nvalue = [1, 1]\nclass = No", fillcolor="#ffffff"] ;
599 -> 615 ;
616 [label="SleepHours <= 9.5\ngini = 0.018\nsamples = 8880\nvalue = [8801, 79]\nclass = No", fillcolor="#e5823b"] ;
562 -> 616 ;
617 [label="FluVaxLast12 <= 0.5\ngini = 0.017\nsamples = 8738\nvalue = [8664, 74]\nclass = No", fillcolor="#e5823b"] ;
616 -> 617 ;
618 [label="WeightInKilograms <= 131.315\ngini = 0.025\nsamples = 2972\nvalue = [2935, 37]\nclass = No", fillcolor="#e5833b"] ;
617 -> 618 ;
619 [label="State <= 10.5\ngini = 0.024\nsamples = 2966\nvalue = [2930, 36]\nclass = No", fillcolor="#e5833b"] ;
618 -> 619 ;
620 [label="HeightInMeters <= 1.46\ngini = 0.048\nsamples = 530\nvalue = [517, 13]\nclass = No", fillcolor="#e6843e"] ;
619 -> 620 ;
621 [label="gini = 0.375\nsamples = 4\nvalue = [3, 1]\nclass = No", fillcolor="#eeab7b"] ;
620 -> 621 ;
622 [label="HIVTesting <= 0.5\ngini = 0.045\nsamples = 526\nvalue = [514, 12]\nclass = No", fillcolor="#e6843e"] ;
620 -> 622 ;
623 [label="gini = 0.033\nsamples = 411\nvalue = [404, 7]\nclass = No", fillcolor="#e5833c"] ;
622 -> 623 ;
624 [label="gini = 0.083\nsamples = 115\nvalue = [110, 5]\nclass = No", fillcolor="#e68742"] ;
622 -> 624 ;
625 [label="BMI <= 19.305\ngini = 0.019\nsamples = 2436\nvalue = [2413, 23]\nclass = No", fillcolor="#e5823b"] ;
619 -> 625 ;
626 [label="HadAsthma <= 0.5\ngini = 0.07\nsamples = 82\nvalue = [79, 3]\nclass = No", fillcolor="#e68641"] ;
625 -> 626 ;
627 [label="gini = 0.049\nsamples = 79\nvalue = [77, 2]\nclass = No", fillcolor="#e6843e"] ;
626 -> 627 ;
628 [label="gini = 0.444\nsamples = 3\nvalue = [2, 1]\nclass = No", fillcolor="#f2c09c"] ;
626 -> 628 ;
629 [label="PneumoVaxEver <= 0.5\ngini = 0.017\nsamples = 2354\nvalue = [2334, 20]\nclass = No", fillcolor="#e5823b"] ;
625 -> 629 ;
630 [label="gini = 0.011\nsamples = 1647\nvalue = [1638, 9]\nclass = No", fillcolor="#e5823a"] ;
629 -> 630 ;
631 [label="gini = 0.031\nsamples = 707\nvalue = [696, 11]\nclass = No", fillcolor="#e5833c"] ;
629 -> 631 ;
632 [label="gini = 0.278\nsamples = 6\nvalue = [5, 1]\nclass = No", fillcolor="#ea9a61"] ;
618 -> 632 ;
633 [label="RemovedTeeth <= 2.5\ngini = 0.013\nsamples = 5766\nvalue = [5729, 37]\nclass = No", fillcolor="#e5823a"] ;
617 -> 633 ;
634 [label="WeightInKilograms <= 51.485\ngini = 0.021\nsamples = 2397\nvalue = [2371, 26]\nclass = No", fillcolor="#e5823b"] ;
633 -> 634 ;
635 [label="RaceEthnicityCategory <= 3.5\ngini = 0.104\nsamples = 73\nvalue = [69, 4]\nclass = No", fillcolor="#e78844"] ;
634 -> 635 ;
636 [label="gini = 0.32\nsamples = 10\nvalue = [8, 2]\nclass = No", fillcolor="#eca06a"] ;
635 -> 636 ;
637 [label="RemovedTeeth <= 0.5\ngini = 0.061\nsamples = 63\nvalue = [61, 2]\nclass = No", fillcolor="#e6853f"] ;
635 -> 637 ;
638 [label="gini = 0.0\nsamples = 52\nvalue = [52, 0]\nclass = No", fillcolor="#e58139"] ;
637 -> 638 ;
639 [label="gini = 0.298\nsamples = 11\nvalue = [9, 2]\nclass = No", fillcolor="#eb9d65"] ;
637 -> 639 ;
640 [label="State <= 42.5\ngini = 0.019\nsamples = 2324\nvalue = [2302, 22]\nclass = No", fillcolor="#e5823b"] ;
634 -> 640 ;
641 [label="WeightInKilograms <= 63.275\ngini = 0.012\nsamples = 1751\nvalue = [1740, 11]\nclass = No", fillcolor="#e5823a"] ;
640 -> 641 ;
642 [label="gini = 0.031\nsamples = 384\nvalue = [378, 6]\nclass = No", fillcolor="#e5833c"] ;
641 -> 642 ;
643 [label="gini = 0.007\nsamples = 1367\nvalue = [1362, 5]\nclass = No", fillcolor="#e5813a"] ;
641 -> 643 ;
644 [label="HeightInMeters <= 1.815\ngini = 0.038\nsamples = 573\nvalue = [562, 11]\nclass = No", fillcolor="#e6833d"] ;
640 -> 644 ;
645 [label="gini = 0.034\nsamples = 571\nvalue = [561, 10]\nclass = No", fillcolor="#e5833d"] ;
644 -> 645 ;
646 [label="gini = 0.5\nsamples = 2\nvalue = [1, 1]\nclass = No", fillcolor="#ffffff"] ;
644 -> 646 ;
647 [label="SleepHours <= 5.5\ngini = 0.007\nsamples = 3369\nvalue = [3358, 11]\nclass = No", fillcolor="#e5813a"] ;
633 -> 647 ;
648 [label="HeightInMeters <= 1.765\ngini = 0.071\nsamples = 108\nvalue = [104, 4]\nclass = No", fillcolor="#e68641"] ;
647 -> 648 ;
649 [label="HighRiskLastYear <= 0.5\ngini = 0.055\nsamples = 106\nvalue = [103, 3]\nclass = No", fillcolor="#e6853f"] ;
648 -> 649 ;
650 [label="gini = 0.038\nsamples = 104\nvalue = [102, 2]\nclass = No", fillcolor="#e6833d"] ;
649 -> 650 ;
651 [label="gini = 0.5\nsamples = 2\nvalue = [1, 1]\nclass = No", fillcolor="#ffffff"] ;
649 -> 651 ;
652 [label="gini = 0.5\nsamples = 2\nvalue = [1, 1]\nclass = No", fillcolor="#ffffff"] ;
648 -> 652 ;
653 [label="HadCOPD <= 0.5\ngini = 0.004\nsamples = 3261\nvalue = [3254, 7]\nclass = No", fillcolor="#e58139"] ;
647 -> 653 ;
654 [label="DifficultyConcentrating <= 0.5\ngini = 0.003\nsamples = 3212\nvalue = [3207, 5]\nclass = No", fillcolor="#e58139"] ;
653 -> 654 ;
655 [label="gini = 0.003\nsamples = 3162\nvalue = [3158, 4]\nclass = No", fillcolor="#e58139"] ;
654 -> 655 ;
656 [label="gini = 0.039\nsamples = 50\nvalue = [49, 1]\nclass = No", fillcolor="#e6843d"] ;
654 -> 656 ;
657 [label="RaceEthnicityCategory <= 0.5\ngini = 0.078\nsamples = 49\nvalue = [47, 2]\nclass = No", fillcolor="#e68641"] ;
653 -> 657 ;
658 [label="gini = 0.0\nsamples = 1\nvalue = [0, 1]\nclass = Yes", fillcolor="#399de5"] ;
657 -> 658 ;
659 [label="gini = 0.041\nsamples = 48\nvalue = [47, 1]\nclass = No", fillcolor="#e6843d"] ;
657 -> 659 ;
660 [label="ECigaretteUsage <= 2.5\ngini = 0.068\nsamples = 142\nvalue = [137, 5]\nclass = No", fillcolor="#e68640"] ;
616 -> 660 ;
661 [label="HeightInMeters <= 1.765\ngini = 0.055\nsamples = 141\nvalue = [137, 4]\nclass = No", fillcolor="#e6853f"] ;
660 -> 661 ;
662 [label="HadSkinCancer <= 0.5\ngini = 0.043\nsamples = 138\nvalue = [135, 3]\nclass = No", fillcolor="#e6843d"] ;
661 -> 662 ;
663 [label="WeightInKilograms <= 94.12\ngini = 0.016\nsamples = 124\nvalue = [123, 1]\nclass = No", fillcolor="#e5823b"] ;
662 -> 663 ;
664 [label="gini = 0.0\nsamples = 113\nvalue = [113, 0]\nclass = No", fillcolor="#e58139"] ;
663 -> 664 ;
665 [label="gini = 0.165\nsamples = 11\nvalue = [10, 1]\nclass = No", fillcolor="#e88e4d"] ;
663 -> 665 ;
666 [label="gini = 0.245\nsamples = 14\nvalue = [12, 2]\nclass = No", fillcolor="#e9965a"] ;
662 -> 666 ;
667 [label="gini = 0.444\nsamples = 3\nvalue = [2, 1]\nclass = No", fillcolor="#f2c09c"] ;
661 -> 667 ;
668 [label="gini = 0.0\nsamples = 1\nvalue = [0, 1]\nclass = Yes", fillcolor="#399de5"] ;
660 -> 668 ;
669 [label="GeneralHealth <= 3.5\ngini = 0.045\nsamples = 6859\nvalue = [6701, 158]\nclass = No", fillcolor="#e6843e"] ;
529 -> 669 ;
670 [label="GeneralHealth <= 2.5\ngini = 0.058\nsamples = 3759\nvalue = [3647, 112]\nclass = No", fillcolor="#e6853f"] ;
669 -> 670 ;
671 [label="GeneralHealth <= 0.5\ngini = 0.055\nsamples = 3710\nvalue = [3605, 105]\nclass = No", fillcolor="#e6853f"] ;
670 -> 671 ;
672 [label="State <= 52.5\ngini = 0.032\nsamples = 1300\nvalue = [1279, 21]\nclass = No", fillcolor="#e5833c"] ;
671 -> 672 ;
673 [label="HadDiabetes <= 0.5\ngini = 0.029\nsamples = 1281\nvalue = [1262, 19]\nclass = No", fillcolor="#e5833c"] ;
672 -> 673 ;
674 [label="SleepHours <= 9.5\ngini = 0.025\nsamples = 1202\nvalue = [1187, 15]\nclass = No", fillcolor="#e5833c"] ;
673 -> 674 ;
675 [label="HeightInMeters <= 1.535\ngini = 0.022\nsamples = 1166\nvalue = [1153, 13]\nclass = No", fillcolor="#e5823b"] ;
674 -> 675 ;
676 [label="State <= 50.5\ngini = 0.063\nsamples = 153\nvalue = [148, 5]\nclass = No", fillcolor="#e68540"] ;
675 -> 676 ;
677 [label="gini = 0.052\nsamples = 150\nvalue = [146, 4]\nclass = No", fillcolor="#e6843e"] ;
676 -> 677 ;
678 [label="gini = 0.444\nsamples = 3\nvalue = [2, 1]\nclass = No", fillcolor="#f2c09c"] ;
676 -> 678 ;
679 [label="BMI <= 31.95\ngini = 0.016\nsamples = 1013\nvalue = [1005, 8]\nclass = No", fillcolor="#e5823b"] ;
675 -> 679 ;
680 [label="gini = 0.012\nsamples = 975\nvalue = [969, 6]\nclass = No", fillcolor="#e5823a"] ;
679 -> 680 ;
681 [label="gini = 0.1\nsamples = 38\nvalue = [36, 2]\nclass = No", fillcolor="#e68844"] ;
679 -> 681 ;
682 [label="State <= 3.5\ngini = 0.105\nsamples = 36\nvalue = [34, 2]\nclass = No", fillcolor="#e78845"] ;
674 -> 682 ;
683 [label="gini = 0.5\nsamples = 4\nvalue = [2, 2]\nclass = No", fillcolor="#ffffff"] ;
682 -> 683 ;
684 [label="gini = 0.0\nsamples = 32\nvalue = [32, 0]\nclass = No", fillcolor="#e58139"] ;
682 -> 684 ;
685 [label="HeightInMeters <= 1.74\ngini = 0.096\nsamples = 79\nvalue = [75, 4]\nclass = No", fillcolor="#e68844"] ;
673 -> 685 ;
686 [label="DifficultyConcentrating <= 0.5\ngini = 0.074\nsamples = 78\nvalue = [75, 3]\nclass = No", fillcolor="#e68641"] ;
685 -> 686 ;
687 [label="SleepHours <= 4.5\ngini = 0.051\nsamples = 76\nvalue = [74, 2]\nclass = No", fillcolor="#e6843e"] ;
686 -> 687 ;
688 [label="gini = 0.5\nsamples = 2\nvalue = [1, 1]\nclass = No", fillcolor="#ffffff"] ;
687 -> 688 ;
689 [label="gini = 0.027\nsamples = 74\nvalue = [73, 1]\nclass = No", fillcolor="#e5833c"] ;
687 -> 689 ;
690 [label="gini = 0.5\nsamples = 2\nvalue = [1, 1]\nclass = No", fillcolor="#ffffff"] ;
686 -> 690 ;
691 [label="gini = 0.0\nsamples = 1\nvalue = [0, 1]\nclass = Yes", fillcolor="#399de5"] ;
685 -> 691 ;
692 [label="BlindOrVisionDifficulty <= 0.5\ngini = 0.188\nsamples = 19\nvalue = [17, 2]\nclass = No", fillcolor="#e89050"] ;
672 -> 692 ;
693 [label="PhysicalActivities <= 0.5\ngini = 0.105\nsamples = 18\nvalue = [17, 1]\nclass = No", fillcolor="#e78845"] ;
692 -> 693 ;
694 [label="gini = 0.444\nsamples = 3\nvalue = [2, 1]\nclass = No", fillcolor="#f2c09c"] ;
693 -> 694 ;
695 [label="gini = 0.0\nsamples = 15\nvalue = [15, 0]\nclass = No", fillcolor="#e58139"] ;
693 -> 695 ;
696 [label="gini = 0.0\nsamples = 1\nvalue = [0, 1]\nclass = Yes", fillcolor="#399de5"] ;
692 -> 696 ;
697 [label="SleepHours <= 1.5\ngini = 0.067\nsamples = 2410\nvalue = [2326, 84]\nclass = No", fillcolor="#e68640"] ;
671 -> 697 ;
698 [label="gini = 0.5\nsamples = 2\nvalue = [1, 1]\nclass = No", fillcolor="#ffffff"] ;
697 -> 698 ;
699 [label="WeightInKilograms <= 51.03\ngini = 0.067\nsamples = 2408\nvalue = [2325, 83]\nclass = No", fillcolor="#e68540"] ;
697 -> 699 ;
700 [label="PhysicalActivities <= 0.5\ngini = 0.139\nsamples = 227\nvalue = [210, 17]\nclass = No", fillcolor="#e78b49"] ;
699 -> 700 ;
701 [label="BMI <= 19.51\ngini = 0.274\nsamples = 55\nvalue = [46, 9]\nclass = No", fillcolor="#ea9a60"] ;
700 -> 701 ;
702 [label="State <= 46.0\ngini = 0.08\nsamples = 24\nvalue = [23, 1]\nclass = No", fillcolor="#e68642"] ;
701 -> 702 ;
703 [label="gini = 0.0\nsamples = 21\nvalue = [21, 0]\nclass = No", fillcolor="#e58139"] ;
702 -> 703 ;
704 [label="gini = 0.444\nsamples = 3\nvalue = [2, 1]\nclass = No", fillcolor="#f2c09c"] ;
702 -> 704 ;
705 [label="DifficultyConcentrating <= 0.5\ngini = 0.383\nsamples = 31\nvalue = [23, 8]\nclass = No", fillcolor="#eead7e"] ;
701 -> 705 ;
706 [label="gini = 0.328\nsamples = 29\nvalue = [23, 6]\nclass = No", fillcolor="#eca26d"] ;
705 -> 706 ;
707 [label="gini = 0.0\nsamples = 2\nvalue = [0, 2]\nclass = Yes", fillcolor="#399de5"] ;
705 -> 707 ;
708 [label="HIVTesting <= 0.5\ngini = 0.089\nsamples = 172\nvalue = [164, 8]\nclass = No", fillcolor="#e68743"] ;
700 -> 708 ;
709 [label="SleepHours <= 3.5\ngini = 0.07\nsamples = 166\nvalue = [160, 6]\nclass = No", fillcolor="#e68640"] ;
708 -> 709 ;
710 [label="gini = 0.5\nsamples = 2\nvalue = [1, 1]\nclass = No", fillcolor="#ffffff"] ;
709 -> 710 ;
711 [label="gini = 0.059\nsamples = 164\nvalue = [159, 5]\nclass = No", fillcolor="#e6853f"] ;
709 -> 711 ;
712 [label="gini = 0.444\nsamples = 6\nvalue = [4, 2]\nclass = No", fillcolor="#f2c09c"] ;
708 -> 712 ;
713 [label="State <= 20.5\ngini = 0.059\nsamples = 2181\nvalue = [2115, 66]\nclass = No", fillcolor="#e6853f"] ;
699 -> 713 ;
714 [label="WeightInKilograms <= 69.625\ngini = 0.029\nsamples = 756\nvalue = [745, 11]\nclass = No", fillcolor="#e5833c"] ;
713 -> 714 ;
715 [label="BMI <= 29.205\ngini = 0.005\nsamples = 411\nvalue = [410, 1]\nclass = No", fillcolor="#e58139"] ;
714 -> 715 ;
716 [label="gini = 0.0\nsamples = 399\nvalue = [399, 0]\nclass = No", fillcolor="#e58139"] ;
715 -> 716 ;
717 [label="gini = 0.153\nsamples = 12\nvalue = [11, 1]\nclass = No", fillcolor="#e78c4b"] ;
715 -> 717 ;
718 [label="WeightInKilograms <= 70.08\ngini = 0.056\nsamples = 345\nvalue = [335, 10]\nclass = No", fillcolor="#e6853f"] ;
714 -> 718 ;
719 [label="gini = 0.444\nsamples = 3\nvalue = [2, 1]\nclass = No", fillcolor="#f2c09c"] ;
718 -> 719 ;
720 [label="gini = 0.051\nsamples = 342\nvalue = [333, 9]\nclass = No", fillcolor="#e6843e"] ;
718 -> 720 ;
721 [label="SmokerStatus <= 2.5\ngini = 0.074\nsamples = 1425\nvalue = [1370, 55]\nclass = No", fillcolor="#e68641"] ;
713 -> 721 ;
722 [label="HeightInMeters <= 1.435\ngini = 0.11\nsamples = 497\nvalue = [468, 29]\nclass = No", fillcolor="#e78945"] ;
721 -> 722 ;
723 [label="gini = 0.5\nsamples = 2\nvalue = [1, 1]\nclass = No", fillcolor="#ffffff"] ;
722 -> 723 ;
724 [label="gini = 0.107\nsamples = 495\nvalue = [467, 28]\nclass = No", fillcolor="#e78945"] ;
722 -> 724 ;
725 [label="BMI <= 43.985\ngini = 0.054\nsamples = 928\nvalue = [902, 26]\nclass = No", fillcolor="#e6853f"] ;
721 -> 725 ;
726 [label="gini = 0.053\nsamples = 925\nvalue = [900, 25]\nclass = No", fillcolor="#e6843e"] ;
725 -> 726 ;
727 [label="gini = 0.444\nsamples = 3\nvalue = [2, 1]\nclass = No", fillcolor="#f2c09c"] ;
725 -> 727 ;
728 [label="HadSkinCancer <= 0.5\ngini = 0.245\nsamples = 49\nvalue = [42, 7]\nclass = No", fillcolor="#e9965a"] ;
670 -> 728 ;
729 [label="State <= 4.0\ngini = 0.169\nsamples = 43\nvalue = [39, 4]\nclass = No", fillcolor="#e88e4d"] ;
728 -> 729 ;
730 [label="gini = 0.5\nsamples = 2\nvalue = [1, 1]\nclass = No", fillcolor="#ffffff"] ;
729 -> 730 ;
731 [label="PhysicalHealthDays <= 5.5\ngini = 0.136\nsamples = 41\nvalue = [38, 3]\nclass = No", fillcolor="#e78b49"] ;
729 -> 731 ;
732 [label="gini = 0.337\nsamples = 14\nvalue = [11, 3]\nclass = No", fillcolor="#eca36f"] ;
731 -> 732 ;
733 [label="gini = 0.0\nsamples = 27\nvalue = [27, 0]\nclass = No", fillcolor="#e58139"] ;
731 -> 733 ;
734 [label="gini = 0.5\nsamples = 6\nvalue = [3, 3]\nclass = No", fillcolor="#ffffff"] ;
728 -> 734 ;
735 [label="HadSkinCancer <= 0.5\ngini = 0.029\nsamples = 3100\nvalue = [3054, 46]\nclass = No", fillcolor="#e5833c"] ;
669 -> 735 ;
736 [label="SleepHours <= 1.5\ngini = 0.022\nsamples = 2501\nvalue = [2473, 28]\nclass = No", fillcolor="#e5823b"] ;
735 -> 736 ;
737 [label="gini = 0.245\nsamples = 7\nvalue = [6, 1]\nclass = No", fillcolor="#e9965a"] ;
736 -> 737 ;
738 [label="SleepHours <= 9.5\ngini = 0.021\nsamples = 2494\nvalue = [2467, 27]\nclass = No", fillcolor="#e5823b"] ;
736 -> 738 ;
739 [label="MentalHealthDays <= 3.5\ngini = 0.019\nsamples = 2406\nvalue = [2383, 23]\nclass = No", fillcolor="#e5823b"] ;
738 -> 739 ;
740 [label="BlindOrVisionDifficulty <= 0.5\ngini = 0.015\nsamples = 2199\nvalue = [2182, 17]\nclass = No", fillcolor="#e5823b"] ;
739 -> 740 ;
741 [label="HadKidneyDisease <= 0.5\ngini = 0.014\nsamples = 2118\nvalue = [2103, 15]\nclass = No", fillcolor="#e5823a"] ;
740 -> 741 ;
742 [label="AgeCategory <= 11.5\ngini = 0.013\nsamples = 2035\nvalue = [2022, 13]\nclass = No", fillcolor="#e5823a"] ;
741 -> 742 ;
743 [label="gini = 0.018\nsamples = 1131\nvalue = [1121, 10]\nclass = No", fillcolor="#e5823b"] ;
742 -> 743 ;
744 [label="gini = 0.007\nsamples = 904\nvalue = [901, 3]\nclass = No", fillcolor="#e5813a"] ;
742 -> 744 ;
745 [label="HeightInMeters <= 1.765\ngini = 0.047\nsamples = 83\nvalue = [81, 2]\nclass = No", fillcolor="#e6843e"] ;
741 -> 745 ;
746 [label="gini = 0.024\nsamples = 82\nvalue = [81, 1]\nclass = No", fillcolor="#e5833b"] ;
745 -> 746 ;
747 [label="gini = 0.0\nsamples = 1\nvalue = [0, 1]\nclass = Yes", fillcolor="#399de5"] ;
745 -> 747 ;
748 [label="HeightInMeters <= 1.69\ngini = 0.048\nsamples = 81\nvalue = [79, 2]\nclass = No", fillcolor="#e6843e"] ;
740 -> 748 ;
749 [label="State <= 5.0\ngini = 0.027\nsamples = 74\nvalue = [73, 1]\nclass = No", fillcolor="#e5833c"] ;
748 -> 749 ;
750 [label="gini = 0.278\nsamples = 6\nvalue = [5, 1]\nclass = No", fillcolor="#ea9a61"] ;
749 -> 750 ;
751 [label="gini = 0.0\nsamples = 68\nvalue = [68, 0]\nclass = No", fillcolor="#e58139"] ;
749 -> 751 ;
752 [label="gini = 0.245\nsamples = 7\nvalue = [6, 1]\nclass = No", fillcolor="#e9965a"] ;
748 -> 752 ;
753 [label="State <= 1.0\ngini = 0.056\nsamples = 207\nvalue = [201, 6]\nclass = No", fillcolor="#e6853f"] ;
739 -> 753 ;
754 [label="gini = 0.0\nsamples = 1\nvalue = [0, 1]\nclass = Yes", fillcolor="#399de5"] ;
753 -> 754 ;
755 [label="PhysicalHealthDays <= 28.5\ngini = 0.047\nsamples = 206\nvalue = [201, 5]\nclass = No", fillcolor="#e6843e"] ;
753 -> 755 ;
756 [label="SleepHours <= 6.5\ngini = 0.039\nsamples = 201\nvalue = [197, 4]\nclass = No", fillcolor="#e6843d"] ;
755 -> 756 ;
757 [label="gini = 0.109\nsamples = 52\nvalue = [49, 3]\nclass = No", fillcolor="#e78945"] ;
756 -> 757 ;
758 [label="gini = 0.013\nsamples = 149\nvalue = [148, 1]\nclass = No", fillcolor="#e5823a"] ;
756 -> 758 ;
759 [label="gini = 0.32\nsamples = 5\nvalue = [4, 1]\nclass = No", fillcolor="#eca06a"] ;
755 -> 759 ;
760 [label="HeightInMeters <= 1.535\ngini = 0.087\nsamples = 88\nvalue = [84, 4]\nclass = No", fillcolor="#e68742"] ;
738 -> 760 ;
761 [label="FluVaxLast12 <= 0.5\ngini = 0.278\nsamples = 18\nvalue = [15, 3]\nclass = No", fillcolor="#ea9a61"] ;
760 -> 761 ;
762 [label="gini = 0.444\nsamples = 3\nvalue = [1, 2]\nclass = Yes", fillcolor="#9ccef2"] ;
761 -> 762 ;
763 [label="gini = 0.124\nsamples = 15\nvalue = [14, 1]\nclass = No", fillcolor="#e78a47"] ;
761 -> 763 ;
764 [label="HadCOPD <= 0.5\ngini = 0.028\nsamples = 70\nvalue = [69, 1]\nclass = No", fillcolor="#e5833c"] ;
760 -> 764 ;
765 [label="gini = 0.0\nsamples = 66\nvalue = [66, 0]\nclass = No", fillcolor="#e58139"] ;
764 -> 765 ;
766 [label="gini = 0.375\nsamples = 4\nvalue = [3, 1]\nclass = No", fillcolor="#eeab7b"] ;
764 -> 766 ;
767 [label="ECigaretteUsage <= 1.5\ngini = 0.058\nsamples = 599\nvalue = [581, 18]\nclass = No", fillcolor="#e6853f"] ;
735 -> 767 ;
768 [label="BMI <= 25.165\ngini = 0.055\nsamples = 598\nvalue = [581, 17]\nclass = No", fillcolor="#e6853f"] ;
767 -> 768 ;
769 [label="PneumoVaxEver <= 0.5\ngini = 0.012\nsamples = 342\nvalue = [340, 2]\nclass = No", fillcolor="#e5823a"] ;
768 -> 769 ;
770 [label="State <= 11.0\ngini = 0.06\nsamples = 65\nvalue = [63, 2]\nclass = No", fillcolor="#e6853f"] ;
769 -> 770 ;
771 [label="State <= 9.5\ngini = 0.188\nsamples = 19\nvalue = [17, 2]\nclass = No", fillcolor="#e89050"] ;
770 -> 771 ;
772 [label="gini = 0.0\nsamples = 17\nvalue = [17, 0]\nclass = No", fillcolor="#e58139"] ;
771 -> 772 ;
773 [label="gini = 0.0\nsamples = 2\nvalue = [0, 2]\nclass = Yes", fillcolor="#399de5"] ;
771 -> 773 ;
774 [label="gini = 0.0\nsamples = 46\nvalue = [46, 0]\nclass = No", fillcolor="#e58139"] ;
770 -> 774 ;
775 [label="gini = 0.0\nsamples = 277\nvalue = [277, 0]\nclass = No", fillcolor="#e58139"] ;
769 -> 775 ;
776 [label="BMI <= 25.235\ngini = 0.11\nsamples = 256\nvalue = [241, 15]\nclass = No", fillcolor="#e78945"] ;
768 -> 776 ;
777 [label="gini = 0.444\nsamples = 3\nvalue = [1, 2]\nclass = Yes", fillcolor="#9ccef2"] ;
776 -> 777 ;
778 [label="State <= 10.5\ngini = 0.097\nsamples = 253\nvalue = [240, 13]\nclass = No", fillcolor="#e68844"] ;
776 -> 778 ;
779 [label="HeightInMeters <= 1.585\ngini = 0.21\nsamples = 42\nvalue = [37, 5]\nclass = No", fillcolor="#e99254"] ;
778 -> 779 ;
780 [label="gini = 0.408\nsamples = 14\nvalue = [10, 4]\nclass = No", fillcolor="#efb388"] ;
779 -> 780 ;
781 [label="PhysicalHealthDays <= 9.5\ngini = 0.069\nsamples = 28\nvalue = [27, 1]\nclass = No", fillcolor="#e68640"] ;
779 -> 781 ;
782 [label="gini = 0.0\nsamples = 26\nvalue = [26, 0]\nclass = No", fillcolor="#e58139"] ;
781 -> 782 ;
783 [label="gini = 0.5\nsamples = 2\nvalue = [1, 1]\nclass = No", fillcolor="#ffffff"] ;
781 -> 783 ;
784 [label="PhysicalHealthDays <= 1.5\ngini = 0.073\nsamples = 211\nvalue = [203, 8]\nclass = No", fillcolor="#e68641"] ;
778 -> 784 ;
785 [label="MentalHealthDays <= 3.5\ngini = 0.047\nsamples = 165\nvalue = [161, 4]\nclass = No", fillcolor="#e6843e"] ;
784 -> 785 ;
786 [label="gini = 0.026\nsamples = 151\nvalue = [149, 2]\nclass = No", fillcolor="#e5833c"] ;
785 -> 786 ;
787 [label="gini = 0.245\nsamples = 14\nvalue = [12, 2]\nclass = No", fillcolor="#e9965a"] ;
785 -> 787 ;
788 [label="RemovedTeeth <= 2.5\ngini = 0.159\nsamples = 46\nvalue = [42, 4]\nclass = No", fillcolor="#e78d4c"] ;
784 -> 788 ;
789 [label="gini = 0.069\nsamples = 28\nvalue = [27, 1]\nclass = No", fillcolor="#e68640"] ;
788 -> 789 ;
790 [label="gini = 0.278\nsamples = 18\nvalue = [15, 3]\nclass = No", fillcolor="#ea9a61"] ;
788 -> 790 ;
791 [label="gini = 0.0\nsamples = 1\nvalue = [0, 1]\nclass = Yes", fillcolor="#399de5"] ;
767 -> 791 ;
792 [label="AgeCategory <= 9.5\ngini = 0.058\nsamples = 18851\nvalue = [18286, 565]\nclass = No", fillcolor="#e6853f"] ;
528 -> 792 ;
793 [label="SmokerStatus <= 2.5\ngini = 0.041\nsamples = 10830\nvalue = [10603, 227]\nclass = No", fillcolor="#e6843d"] ;
792 -> 793 ;
794 [label="HadDiabetes <= 0.5\ngini = 0.061\nsamples = 3968\nvalue = [3844, 124]\nclass = No", fillcolor="#e6853f"] ;
793 -> 794 ;
795 [label="ECigaretteUsage <= 0.5\ngini = 0.049\nsamples = 3269\nvalue = [3187, 82]\nclass = No", fillcolor="#e6843e"] ;
794 -> 795 ;
796 [label="PhysicalHealthDays <= 20.5\ngini = 0.039\nsamples = 2523\nvalue = [2473, 50]\nclass = No", fillcolor="#e6843d"] ;
795 -> 796 ;
797 [label="LastCheckupTime <= 2.5\ngini = 0.036\nsamples = 2442\nvalue = [2397, 45]\nclass = No", fillcolor="#e5833d"] ;
796 -> 797 ;
798 [label="PhysicalHealthDays <= 9.0\ngini = 0.01\nsamples = 574\nvalue = [571, 3]\nclass = No", fillcolor="#e5823a"] ;
797 -> 798 ;
799 [label="HadSkinCancer <= 0.5\ngini = 0.007\nsamples = 550\nvalue = [548, 2]\nclass = No", fillcolor="#e5813a"] ;
798 -> 799 ;
800 [label="SmokerStatus <= 0.5\ngini = 0.004\nsamples = 511\nvalue = [510, 1]\nclass = No", fillcolor="#e58139"] ;
799 -> 800 ;
801 [label="gini = 0.017\nsamples = 118\nvalue = [117, 1]\nclass = No", fillcolor="#e5823b"] ;
800 -> 801 ;
802 [label="gini = 0.0\nsamples = 393\nvalue = [393, 0]\nclass = No", fillcolor="#e58139"] ;
800 -> 802 ;
803 [label="TetanusLast10Tdap <= 2.5\ngini = 0.05\nsamples = 39\nvalue = [38, 1]\nclass = No", fillcolor="#e6843e"] ;
799 -> 803 ;
804 [label="gini = 0.0\nsamples = 38\nvalue = [38, 0]\nclass = No", fillcolor="#e58139"] ;
803 -> 804 ;
805 [label="gini = 0.0\nsamples = 1\nvalue = [0, 1]\nclass = Yes", fillcolor="#399de5"] ;
803 -> 805 ;
806 [label="State <= 51.0\ngini = 0.08\nsamples = 24\nvalue = [23, 1]\nclass = No", fillcolor="#e68642"] ;
798 -> 806 ;
807 [label="gini = 0.0\nsamples = 22\nvalue = [22, 0]\nclass = No", fillcolor="#e58139"] ;
806 -> 807 ;
808 [label="gini = 0.5\nsamples = 2\nvalue = [1, 1]\nclass = No", fillcolor="#ffffff"] ;
806 -> 808 ;
809 [label="SmokerStatus <= 1.5\ngini = 0.044\nsamples = 1868\nvalue = [1826, 42]\nclass = No", fillcolor="#e6843e"] ;
797 -> 809 ;
810 [label="WeightInKilograms <= 59.42\ngini = 0.093\nsamples = 266\nvalue = [253, 13]\nclass = No", fillcolor="#e68743"] ;
809 -> 810 ;
811 [label="gini = 0.375\nsamples = 8\nvalue = [6, 2]\nclass = No", fillcolor="#eeab7b"] ;
810 -> 811 ;
812 [label="RemovedTeeth <= 1.5\ngini = 0.082\nsamples = 258\nvalue = [247, 11]\nclass = No", fillcolor="#e68742"] ;
810 -> 812 ;
813 [label="gini = 0.04\nsamples = 146\nvalue = [143, 3]\nclass = No", fillcolor="#e6843d"] ;
812 -> 813 ;
814 [label="gini = 0.133\nsamples = 112\nvalue = [104, 8]\nclass = No", fillcolor="#e78b48"] ;
812 -> 814 ;
815 [label="MentalHealthDays <= 1.5\ngini = 0.036\nsamples = 1602\nvalue = [1573, 29]\nclass = No", fillcolor="#e5833d"] ;
809 -> 815 ;
816 [label="State <= 1.5\ngini = 0.029\nsamples = 1379\nvalue = [1359, 20]\nclass = No", fillcolor="#e5833c"] ;
815 -> 816 ;
817 [label="gini = 0.121\nsamples = 31\nvalue = [29, 2]\nclass = No", fillcolor="#e78a47"] ;
816 -> 817 ;
818 [label="gini = 0.026\nsamples = 1348\nvalue = [1330, 18]\nclass = No", fillcolor="#e5833c"] ;
816 -> 818 ;
819 [label="PhysicalHealthDays <= 1.5\ngini = 0.077\nsamples = 223\nvalue = [214, 9]\nclass = No", fillcolor="#e68641"] ;
815 -> 819 ;
820 [label="gini = 0.111\nsamples = 152\nvalue = [143, 9]\nclass = No", fillcolor="#e78945"] ;
819 -> 820 ;
821 [label="gini = 0.0\nsamples = 71\nvalue = [71, 0]\nclass = No", fillcolor="#e58139"] ;
819 -> 821 ;
822 [label="RaceEthnicityCategory <= 0.5\ngini = 0.116\nsamples = 81\nvalue = [76, 5]\nclass = No", fillcolor="#e78946"] ;
796 -> 822 ;
823 [label="gini = 0.444\nsamples = 9\nvalue = [6, 3]\nclass = No", fillcolor="#f2c09c"] ;
822 -> 823 ;
824 [label="PhysicalHealthDays <= 23.0\ngini = 0.054\nsamples = 72\nvalue = [70, 2]\nclass = No", fillcolor="#e6853f"] ;
822 -> 824 ;
825 [label="gini = 0.444\nsamples = 3\nvalue = [2, 1]\nclass = No", fillcolor="#f2c09c"] ;
824 -> 825 ;
826 [label="SmokerStatus <= 0.5\ngini = 0.029\nsamples = 69\nvalue = [68, 1]\nclass = No", fillcolor="#e5833c"] ;
824 -> 826 ;
827 [label="gini = 0.198\nsamples = 9\nvalue = [8, 1]\nclass = No", fillcolor="#e89152"] ;
826 -> 827 ;
828 [label="gini = 0.0\nsamples = 60\nvalue = [60, 0]\nclass = No", fillcolor="#e58139"] ;
826 -> 828 ;
829 [label="State <= 22.5\ngini = 0.082\nsamples = 746\nvalue = [714, 32]\nclass = No", fillcolor="#e68742"] ;
795 -> 829 ;
830 [label="ECigaretteUsage <= 2.5\ngini = 0.036\nsamples = 324\nvalue = [318, 6]\nclass = No", fillcolor="#e5833d"] ;
829 -> 830 ;
831 [label="CovidPos <= 1.5\ngini = 0.027\nsamples = 297\nvalue = [293, 4]\nclass = No", fillcolor="#e5833c"] ;
830 -> 831 ;
832 [label="HadCOPD <= 0.5\ngini = 0.008\nsamples = 239\nvalue = [238, 1]\nclass = No", fillcolor="#e5823a"] ;
831 -> 832 ;
833 [label="gini = 0.0\nsamples = 221\nvalue = [221, 0]\nclass = No", fillcolor="#e58139"] ;
832 -> 833 ;
834 [label="GeneralHealth <= 1.5\ngini = 0.105\nsamples = 18\nvalue = [17, 1]\nclass = No", fillcolor="#e78845"] ;
832 -> 834 ;
835 [label="gini = 0.375\nsamples = 4\nvalue = [3, 1]\nclass = No", fillcolor="#eeab7b"] ;
834 -> 835 ;
836 [label="gini = 0.0\nsamples = 14\nvalue = [14, 0]\nclass = No", fillcolor="#e58139"] ;
834 -> 836 ;
837 [label="State <= 1.5\ngini = 0.098\nsamples = 58\nvalue = [55, 3]\nclass = No", fillcolor="#e68844"] ;
831 -> 837 ;
838 [label="gini = 0.5\nsamples = 2\nvalue = [1, 1]\nclass = No", fillcolor="#ffffff"] ;
837 -> 838 ;
839 [label="BMI <= 30.635\ngini = 0.069\nsamples = 56\nvalue = [54, 2]\nclass = No", fillcolor="#e68640"] ;
837 -> 839 ;
840 [label="gini = 0.0\nsamples = 44\nvalue = [44, 0]\nclass = No", fillcolor="#e58139"] ;
839 -> 840 ;
841 [label="gini = 0.278\nsamples = 12\nvalue = [10, 2]\nclass = No", fillcolor="#ea9a61"] ;
839 -> 841 ;
842 [label="PhysicalHealthDays <= 14.5\ngini = 0.137\nsamples = 27\nvalue = [25, 2]\nclass = No", fillcolor="#e78b49"] ;
830 -> 842 ;
843 [label="RaceEthnicityCategory <= 1.5\ngini = 0.074\nsamples = 26\nvalue = [25, 1]\nclass = No", fillcolor="#e68641"] ;
842 -> 843 ;
844 [label="gini = 0.5\nsamples = 2\nvalue = [1, 1]\nclass = No", fillcolor="#ffffff"] ;
843 -> 844 ;
845 [label="gini = 0.0\nsamples = 24\nvalue = [24, 0]\nclass = No", fillcolor="#e58139"] ;
843 -> 845 ;
846 [label="gini = 0.0\nsamples = 1\nvalue = [0, 1]\nclass = Yes", fillcolor="#399de5"] ;
842 -> 846 ;
847 [label="WeightInKilograms <= 109.995\ngini = 0.116\nsamples = 422\nvalue = [396, 26]\nclass = No", fillcolor="#e78946"] ;
829 -> 847 ;
